{"learner":{"attributes":{"best_iteration":"370","best_score":"3.1274481285863587"},"feature_names":["CPI_Change","Rate_Change","GDP_Growth","Unemp_Change","USD_Change","VIX_Change","Credit_Spread","CPI_Change_lag2","GDP_Growth_lag3","Unemp_Change_lag2","Credit_Spread_lag4"],"feature_types":["float","float","float","float","float","float","float","float","float","float","float"],"gradient_booster":{"model":{"cats":{"enc":[],"feature_segments":[],"sorted_idx":[]},"gbtree_model_param":{"num_parallel_tree":"1","num_trees":"421"},"iteration_indptr":[0,1,2,3,4,5,6,7,8,9,10,11,12,13,14,15,16,17,18,19,20,21,22,23,24,25,26,27,28,29,30,31,32,33,34,35,36,37,38,39,40,41,42,43,44,45,46,47,48,49,50,51,52,53,54,55,56,57,58,59,60,61,62,63,64,65,66,67,68,69,70,71,72,73,74,75,76,77,78,79,80,81,82,83,84,85,86,87,88,89,90,91,92,93,94,95,96,97,98,99,100,101,102,103,104,105,106,107,108,109,110,111,112,113,114,115,116,117,118,119,120,121,122,123,124,125,126,127,128,129,130,131,132,133,134,135,136,137,138,139,140,141,142,143,144,145,146,147,148,149,150,151,152,153,154,155,156,157,158,159,160,161,162,163,164,165,166,167,168,169,170,171,172,173,174,175,176,177,178,179,180,181,182,183,184,185,186,187,188,189,190,191,192,193,194,195,196,197,198,199,200,201,202,203,204,205,206,207,208,209,210,211,212,213,214,215,216,217,218,219,220,221,222,223,224,225,226,227,228,229,230,231,232,233,234,235,236,237,238,239,240,241,242,243,244,245,246,247,248,249,250,251,252,253,254,255,256,257,258,259,260,261,262,263,264,265,266,267,268,269,270,271,272,273,274,275,276,277,278,279,280,281,282,283,284,285,286,287,288,289,290,291,292,293,294,295,296,297,298,299,300,301,302,303,304,305,306,307,308,309,310,311,312,313,314,315,316,317,318,319,320,321,322,323,324,325,326,327,328,329,330,331,332,333,334,335,336,337,338,339,340,341,342,343,344,345,346,347,348,349,350,351,352,353,354,355,356,357,358,359,360,361,362,363,364,365,366,367,368,369,370,371,372,373,374,375,376,377,378,379,380,381,382,383,384,385,386,387,388,389,390,391,392,393,394,395,396,397,398,399,400,401,402,403,404,405,406,407,408,409,410,411,412,413,414,415,416,417,418,419,420,421],"tree_info":[0,0,0,0,0,0,0,0,0,0,0,0,0,0,0,0,0,0,0,0,0,0,0,0,0,0,0,0,0,0,0,0,0,0,0,0,0,0,0,0,0,0,0,0,0,0,0,0,0,0,0,0,0,0,0,0,0,0,0,0,0,0,0,0,0,0,0,0,0,0,0,0,0,0,0,0,0,0,0,0,0,0,0,0,0,0,0,0,0,0,0,0,0,0,0,0,0,0,0,0,0,0,0,0,0,0,0,0,0,0,0,0,0,0,0,0,0,0,0,0,0,0,0,0,0,0,0,0,0,0,0,0,0,0,0,0,0,0,0,0,0,0,0,0,0,0,0,0,0,0,0,0,0,0,0,0,0,0,0,0,0,0,0,0,0,0,0,0,0,0,0,0,0,0,0,0,0,0,0,0,0,0,0,0,0,0,0,0,0,0,0,0,0,0,0,0,0,0,0,0,0,0,0,0,0,0,0,0,0,0,0,0,0,0,0,0,0,0,0,0,0,0,0,0,0,0,0,0,0,0,0,0,0,0,0,0,0,0,0,0,0,0,0,0,0,0,0,0,0,0,0,0,0,0,0,0,0,0,0,0,0,0,0,0,0,0,0,0,0,0,0,0,0,0,0,0,0,0,0,0,0,0,0,0,0,0,0,0,0,0,0,0,0,0,0,0,0,0,0,0,0,0,0,0,0,0,0,0,0,0,0,0,0,0,0,0,0,0,0,0,0,0,0,0,0,0,0,0,0,0,0,0,0,0,0,0,0,0,0,0,0,0,0,0,0,0,0,0,0,0,0,0,0,0,0,0,0,0,0,0,0,0,0,0,0,0,0,0,0,0,0,0,0,0,0,0,0,0,0,0,0,0,0,0,0,0,0,0,0,0,0,0,0,0,0,0,0,0,0,0,0,0,0,0,0,0,0,0,0,0,0,0,0,0,0,0,0,0,0,0,0],"trees":[{"base_weights":[-1.8279389E-1,1.0731587E0,-2.9180248E0,3.2714173E-2,2.6723584E-3,-1.4748809E-2,-3.9835706E-2],"categories":[],"categories_nodes":[],"categories_segments":[],"categories_sizes":[],"default_left":[0,0,0,0,0,0,0],"id":0,"left_children":[1,3,5,-1,-1,-1,-1],"loss_changes":[5.568477E2,1.8874075E2,4.358963E1,0E0,0E0,0E0,0E0],"parents":[2147483647,0,0,1,1,2,2],"right_children":[2,4,6,-1,-1,-1,-1],"split_conditions":[7.549351E-1,-2.9109523E0,9.2E-1,3.2714173E-2,2.6723584E-3,-1.4748809E-2,-3.9835706E-2],"split_indices":[5,5,6,0,0,0,0],"split_type":[0,0,0,0,0,0,0],"sum_hessian":[1.52E2,1.06E2,4.6E1,2.4E1,8.2E1,2.5E1,2.1E1],"tree_param":{"num_deleted":"0","num_feature":"11","num_nodes":"7","size_leaf_vector":"1"}},{"base_weights":[-1.9244803E-1,8.4452593E-1,-4.7563918E-2,1.7213082E-2,-4.8122406E-3],"categories":[],"categories_nodes":[],"categories_segments":[],"categories_sizes":[],"default_left":[0,0,0,0,0],"id":1,"left_children":[1,3,-1,-1,-1],"loss_changes":[7.670289E2,1.5881781E2,0E0,0E0,0E0],"parents":[2147483647,0,0,1,1],"right_children":[2,4,-1,-1,-1],"split_conditions":[3.1788182E0,-4.5445135E-1,-4.7563918E-2,1.7213082E-2,-4.8122406E-3],"split_indices":[5,5,0,0,0],"split_type":[0,0,0,0,0],"sum_hessian":[1.52E2,1.27E2,2.5E1,7.6E1,5.1E1],"tree_param":{"num_deleted":"0","num_feature":"11","num_nodes":"5","size_leaf_vector":"1"}},{"base_weights":[6.0073204E-2,1.5585482E0,-3.7009077E0,2.4993159E-2,3.882563E-3,-1.6205192E-2,-5.0617985E-2],"categories":[],"categories_nodes":[],"categories_segments":[],"categories_sizes":[],"default_left":[0,0,0,0,0,0,0],"id":2,"left_children":[1,3,5,-1,-1,-1,-1],"loss_changes":[1.069309E3,1.4199292E2,1.05187805E2,0E0,0E0,0E0,0E0],"parents":[2147483647,0,0,1,1,2,2],"right_children":[2,4,6,-1,-1,-1,-1],"split_conditions":[7.9788095E-1,-8.19329E-1,2.9216883E0,2.4993159E-2,3.882563E-3,-1.6205192E-2,-5.0617985E-2],"split_indices":[5,5,5,0,0,0,0],"split_type":[0,0,0,0,0,0,0],"sum_hessian":[1.8E2,1.31E2,4.9E1,6.9E1,6.2E1,2.4E1,2.5E1],"tree_param":{"num_deleted":"0","num_feature":"11","num_nodes":"7","size_leaf_vector":"1"}},{"base_weights":[5.768044E-2,1.2495699E0,-3.6954675E-2,2.1827761E-2,1.9949125E-3],"categories":[],"categories_nodes":[],"categories_segments":[],"categories_sizes":[],"default_left":[0,0,0,0,0],"id":3,"left_children":[1,3,-1,-1,-1],"loss_changes":[7.990036E2,1.2871237E2,0E0,0E0,0E0],"parents":[2147483647,0,0,1,1],"right_children":[2,4,-1,-1,-1],"split_conditions":[1.332684E0,-8.19329E-1,-3.6954675E-2,2.1827761E-2,1.9949125E-3],"split_indices":[5,5,0,0,0],"split_type":[0,0,0,0,0],"sum_hessian":[1.69E2,1.31E2,3.8E1,6.6E1,6.5E1],"tree_param":{"num_deleted":"0","num_feature":"11","num_nodes":"5","size_leaf_vector":"1"}},{"base_weights":[-1.0111065E-1,1.2688535E0,-3.3232894E0,1.7868299E-2,-2.3352422E-3,-1.3972833E-2,-5.3150397E-2],"categories":[],"categories_nodes":[],"categories_segments":[],"categories_sizes":[],"default_left":[0,0,0,0,0,0,0],"id":4,"left_children":[1,3,5,-1,-1,-1,-1],"loss_changes":[8.1329254E2,1.0402693E2,1.6714142E2,0E0,0E0,0E0,0E0],"parents":[2147483647,0,0,1,1,2,2],"right_children":[2,4,6,-1,-1,-1,-1],"split_conditions":[8.8752633E-1,1.0174996E0,1.04E0,1.7868299E-2,-2.3352422E-3,-1.3972833E-2,-5.3150397E-2],"split_indices":[5,4,6,0,0,0,0],"split_type":[0,0,0,0,0,0,0],"sum_hessian":[1.74E2,1.24E2,5E1,9.2E1,3.2E1,3E1,2E1],"tree_param":{"num_deleted":"0","num_feature":"11","num_nodes":"7","size_leaf_vector":"1"}},{"base_weights":[-2.1811205E-1,7.615131E-1,-9.722965E-1,2.0939116E-3,1.7020859E-2,-2.26272E-2,-2.8889005E-3],"categories":[],"categories_nodes":[],"categories_segments":[],"categories_sizes":[],"default_left":[0,0,0,0,0,0,0],"id":5,"left_children":[1,3,5,-1,-1,-1,-1],"loss_changes":[1.2581783E2,3.4735523E1,7.884084E1,0E0,0E0,0E0,0E0],"parents":[2147483647,0,0,1,1,2,2],"right_children":[2,4,6,-1,-1,-1,-1],"split_conditions":[0E0,1.04E0,3.529351E0,2.0939116E-3,1.7020859E-2,-2.26272E-2,-2.8889005E-3],"split_indices":[3,10,8,0,0,0,0],"split_type":[0,0,0,0,0,0,0],"sum_hessian":[1.6E2,6.9E1,9.1E1,4.8E1,2.1E1,2.7E1,6.4E1],"tree_param":{"num_deleted":"0","num_feature":"11","num_nodes":"7","size_leaf_vector":"1"}},{"base_weights":[-1.1758579E-1,1.1999352E0,-9.956867E-1,1.7070413E-2,2.9631527E-3,-3.0164933E-2,-3.6792448E-3],"categories":[],"categories_nodes":[],"categories_segments":[],"categories_sizes":[],"default_left":[0,0,0,0,0,0,0],"id":6,"left_children":[1,3,5,-1,-1,-1,-1],"loss_changes":[2.1170067E2,2.8918411E1,1.3061084E2,0E0,0E0,0E0,0E0],"parents":[2147483647,0,0,1,1,2,2],"right_children":[2,4,6,-1,-1,-1,-1],"split_conditions":[-2.8641167E-1,1E-1,3.0329375E0,1.7070413E-2,2.9631527E-3,-3.0164933E-2,-3.6792448E-3],"split_indices":[4,3,2,0,0,0,0],"split_type":[0,0,0,0,0,0,0],"sum_hessian":[1.73E2,6.8E1,1.05E2,4E1,2.8E1,2E1,8.5E1],"tree_param":{"num_deleted":"0","num_feature":"11","num_nodes":"7","size_leaf_vector":"1"}},{"base_weights":[-2.677219E-1,1.8137618E0,-2.6177497E0,3.285387E-2,1.1606392E-2,-1.0520621E-2,-4.8477426E-2],"categories":[],"categories_nodes":[],"categories_segments":[],"categories_sizes":[],"default_left":[0,0,0,0,0,0,0],"id":7,"left_children":[1,3,5,-1,-1,-1,-1],"loss_changes":[8.7567267E2,6.779764E1,2.6188318E2,0E0,0E0,0E0,0E0],"parents":[2147483647,0,0,1,1,2,2],"right_children":[2,4,6,-1,-1,-1,-1],"split_conditions":[-7.7973686E-2,1.7E-2,3.1788182E0,3.285387E-2,1.1606392E-2,-1.0520621E-2,-4.8477426E-2],"split_indices":[5,0,5,0,0,0,0],"split_type":[0,0,0,0,0,0,0],"sum_hessian":[1.69E2,9E1,7.9E1,2.1E1,6.9E1,5.1E1,2.8E1],"tree_param":{"num_deleted":"0","num_feature":"11","num_nodes":"7","size_leaf_vector":"1"}},{"base_weights":[-7.702691E-2,1.1365528E0,-3.8167335E-2,1.7582523E-2,-1.9513033E-3],"categories":[],"categories_nodes":[],"categories_segments":[],"categories_sizes":[],"default_left":[0,0,0,0,0],"id":8,"left_children":[1,3,-1,-1,-1],"loss_changes":[7.959033E2,1.1256227E2,0E0,0E0,0E0],"parents":[2147483647,0,0,1,1],"right_children":[2,4,-1,-1,-1],"split_conditions":[1.332684E0,3.547619E-2,-3.8167335E-2,1.7582523E-2,-1.9513033E-3],"split_indices":[5,5,0,0,0],"split_type":[0,0,0,0,0],"sum_hessian":[1.65E2,1.27E2,3.8E1,8.6E1,4.1E1],"tree_param":{"num_deleted":"0","num_feature":"11","num_nodes":"5","size_leaf_vector":"1"}},{"base_weights":[-2.7793008E-1,1.0536813E-1,-1.7296247E-2,-4.114694E-3,1.1740859E-2],"categories":[],"categories_nodes":[],"categories_segments":[],"categories_sizes":[],"default_left":[0,0,0,0,0],"id":9,"left_children":[1,3,-1,-1,-1],"loss_changes":[8.822601E1,7.277464E1,0E0,0E0,0E0],"parents":[2147483647,0,0,1,1],"right_children":[2,4,-1,-1,-1],"split_conditions":[1.23E0,7.15E-1,-1.7296247E-2,-4.114694E-3,1.1740859E-2],"split_indices":[6,0,0,0,0],"split_type":[0,0,0,0,0],"sum_hessian":[1.49E2,1.21E2,2.8E1,8.3E1,3.8E1],"tree_param":{"num_deleted":"0","num_feature":"11","num_nodes":"5","size_leaf_vector":"1"}},{"base_weights":[1.6018781E-1,2.1193974E0,-1.8642927E0,3.7517197E-2,1.0194638E-2,-7.1916566E-3,-4.5203745E-2],"categories":[],"categories_nodes":[],"categories_segments":[],"categories_sizes":[],"default_left":[0,0,0,0,0,0,0],"id":10,"left_children":[1,3,5,-1,-1,-1,-1],"loss_changes":[7.022287E2,1.3769525E2,2.4312091E2,0E0,0E0,0E0,0E0],"parents":[2147483647,0,0,1,1,2,2],"right_children":[2,4,6,-1,-1,-1,-1],"split_conditions":[-4.6327272E-1,-2.9109523E0,3.1788182E0,3.7517197E-2,1.0194638E-2,-7.1916566E-3,-4.5203745E-2],"split_indices":[5,5,5,0,0,0,0],"split_type":[0,0,0,0,0,0,0],"sum_hessian":[1.67E2,8.5E1,8.2E1,2.9E1,5.6E1,6.2E1,2E1],"tree_param":{"num_deleted":"0","num_feature":"11","num_nodes":"7","size_leaf_vector":"1"}},{"base_weights":[2.3492636E-1,1.4305774E0,-2.7693474E0,2.5716461E-2,7.7484804E-3,-8.875754E-3,-4.3695945E-2],"categories":[],"categories_nodes":[],"categories_segments":[],"categories_sizes":[],"default_left":[0,0,0,0,0,0,0],"id":11,"left_children":[1,3,5,-1,-1,-1,-1],"loss_changes":[6.43489E2,8.246408E1,1.2892746E2,0E0,0E0,0E0,0E0],"parents":[2147483647,0,0,1,1,2,2],"right_children":[2,4,6,-1,-1,-1,-1],"split_conditions":[8.8752633E-1,-2.1442857E0,9.2E-1,2.5716461E-2,7.7484804E-3,-8.875754E-3,-4.3695945E-2],"split_indices":[5,5,6,0,0,0,0],"split_type":[0,0,0,0,0,0,0],"sum_hessian":[1.69E2,1.23E2,4.6E1,3.9E1,8.4E1,2.5E1,2.1E1],"tree_param":{"num_deleted":"0","num_feature":"11","num_nodes":"7","size_leaf_vector":"1"}},{"base_weights":[-1.7998165E-1,6.636691E-1,-2.1556945E0,1.4476066E-2,-5.161499E-4,-9.133078E-3,-3.324506E-2],"categories":[],"categories_nodes":[],"categories_segments":[],"categories_sizes":[],"default_left":[0,0,0,0,0,0,0],"id":12,"left_children":[1,3,5,-1,-1,-1,-1],"loss_changes":[2.9533698E2,7.13011E1,5.754283E1,0E0,0E0,0E0,0E0],"parents":[2147483647,0,0,1,1,2,2],"right_children":[2,4,6,-1,-1,-1,-1],"split_conditions":[9.774785E-1,0E0,9.8E-1,1.4476066E-2,-5.161499E-4,-9.133078E-3,-3.324506E-2],"split_indices":[4,9,6,0,0,0,0],"split_type":[0,0,0,0,0,0,0],"sum_hessian":[1.67E2,1.19E2,4.8E1,5.5E1,6.4E1,2.8E1,2E1],"tree_param":{"num_deleted":"0","num_feature":"11","num_nodes":"7","size_leaf_vector":"1"}},{"base_weights":[-1.9208446E-2,7.2773343E-1,-4.6565287E-2,1.8960701E-2,-1.5180167E-3],"categories":[],"categories_nodes":[],"categories_segments":[],"categories_sizes":[],"default_left":[0,0,0,0,0],"id":13,"left_children":[1,3,-1,-1,-1],"loss_changes":[6.2357513E2,1.6143277E2,0E0,0E0,0E0],"parents":[2147483647,0,0,1,1],"right_children":[2,4,-1,-1,-1],"split_conditions":[3.1788182E0,-8.6388093E-1,-4.6565287E-2,1.8960701E-2,-1.5180167E-3],"split_indices":[5,5,0,0,0],"split_type":[0,0,0,0,0],"sum_hessian":[1.69E2,1.49E2,2E1,6.2E1,8.7E1],"tree_param":{"num_deleted":"0","num_feature":"11","num_nodes":"5","size_leaf_vector":"1"}},{"base_weights":[-5.3950644E-1,-1.5932667E0,1.9146413E-1,-4.063686E-3,-2.0063424E-2,-3.961463E-3,1.6985497E-2],"categories":[],"categories_nodes":[],"categories_segments":[],"categories_sizes":[],"default_left":[0,0,0,0,0,0,0],"id":14,"left_children":[1,3,5,-1,-1,-1,-1],"loss_changes":[1.400347E2,2.9791367E1,1.011949E2,0E0,0E0,0E0,0E0],"parents":[2147483647,0,0,1,1,2,2],"right_children":[2,4,6,-1,-1,-1,-1],"split_conditions":[3.8313103E0,0E0,1E0,-4.063686E-3,-2.0063424E-2,-3.961463E-3,1.6985497E-2],"split_indices":[2,9,10,0,0,0,0],"split_type":[0,0,0,0,0,0,0],"sum_hessian":[1.73E2,6.9E1,1.04E2,2.1E1,4.8E1,7.7E1,2.7E1],"tree_param":{"num_deleted":"0","num_feature":"11","num_nodes":"7","size_leaf_vector":"1"}},{"base_weights":[1.4614065E-1,1.1699618E0,-3.302523E-2,2.5244476E-2,2.9174504E-3],"categories":[],"categories_nodes":[],"categories_segments":[],"categories_sizes":[],"default_left":[0,0,0,0,0],"id":15,"left_children":[1,3,-1,-1,-1],"loss_changes":[6.1742523E2,1.5408821E2,0E0,0E0,0E0],"parents":[2147483647,0,0,1,1],"right_children":[2,4,-1,-1,-1],"split_conditions":[1.268381E0,-1.647E0,-3.302523E-2,2.5244476E-2,2.9174504E-3],"split_indices":[5,5,0,0,0],"split_type":[0,0,0,0,0],"sum_hessian":[1.65E2,1.3E2,3.5E1,4.7E1,8.3E1],"tree_param":{"num_deleted":"0","num_feature":"11","num_nodes":"5","size_leaf_vector":"1"}},{"base_weights":[-2.2969909E-1,1.0921714E0,-2.913047E0,2.9179158E-2,4.497488E-3,-1.3529676E-2,-4.9737744E-2],"categories":[],"categories_nodes":[],"categories_segments":[],"categories_sizes":[],"default_left":[0,0,0,0,0,0,0],"id":16,"left_children":[1,3,5,-1,-1,-1,-1],"loss_changes":[6.774778E2,1.4020183E2,1.62565E2,0E0,0E0,0E0,0E0],"parents":[2147483647,0,0,1,1,2,2],"right_children":[2,4,6,-1,-1,-1,-1],"split_conditions":[8.8752633E-1,-3.083295E0,1.04E0,2.9179158E-2,4.497488E-3,-1.3529676E-2,-4.9737744E-2],"split_indices":[5,5,6,0,0,0,0],"split_type":[0,0,0,0,0,0,0],"sum_hessian":[1.81E2,1.23E2,5.8E1,2.7E1,9.6E1,3.8E1,2E1],"tree_param":{"num_deleted":"0","num_feature":"11","num_nodes":"7","size_leaf_vector":"1"}},{"base_weights":[1.9045405E-1,1.3310151E0,-5.38664E-1,1.9420483E-3,2.3814963E-2,4.270827E-3,-1.2968751E-2],"categories":[],"categories_nodes":[],"categories_segments":[],"categories_sizes":[],"default_left":[0,0,0,0,0,0,0],"id":17,"left_children":[1,3,5,-1,-1,-1,-1],"loss_changes":[1.5157103E2,7.989988E1,8.491777E1,0E0,0E0,0E0,0E0],"parents":[2147483647,0,0,1,1,2,2],"right_children":[2,4,6,-1,-1,-1,-1],"split_conditions":[-3.223188E-1,1E0,0E0,1.9420483E-3,2.3814963E-2,4.270827E-3,-1.2968751E-2],"split_indices":[4,10,9,0,0,0,0],"split_type":[0,0,0,0,0,0,0],"sum_hessian":[1.72E2,6.6E1,1.06E2,3.5E1,3.1E1,4.7E1,5.9E1],"tree_param":{"num_deleted":"0","num_feature":"11","num_nodes":"7","size_leaf_vector":"1"}},{"base_weights":[6.606648E-2,-3.9259613E-1,9.0901816E-1,5.420628E-3,-7.533925E-3,2.471647E-4,1.9032506E-2],"categories":[],"categories_nodes":[],"categories_segments":[],"categories_sizes":[],"default_left":[0,0,0,0,0,0,0],"id":18,"left_children":[1,3,5,-1,-1,-1,-1],"loss_changes":[7.112102E1,4.204541E1,5.498492E1,0E0,0E0,0E0,0E0],"parents":[2147483647,0,0,1,1,2,2],"right_children":[2,4,6,-1,-1,-1,-1],"split_conditions":[1E0,7.2E-1,3.8203647E0,5.420628E-3,-7.533925E-3,2.471647E-4,1.9032506E-2],"split_indices":[10,6,2,0,0,0,0],"split_type":[0,0,0,0,0,0,0],"sum_hessian":[1.73E2,1.13E2,6E1,3E1,8.3E1,3.5E1,2.5E1],"tree_param":{"num_deleted":"0","num_feature":"11","num_nodes":"7","size_leaf_vector":"1"}},{"base_weights":[-2.45296E-1,1.0978562E0,-3.0007453E0,2.6801355E-2,3.8015645E-3,-1.4978848E-2,-4.0553987E-2],"categories":[],"categories_nodes":[],"categories_segments":[],"categories_sizes":[],"default_left":[0,0,0,0,0,0,0],"id":19,"left_children":[1,3,5,-1,-1,-1,-1],"loss_changes":[6.216358E2,1.2016832E2,5.124893E1,0E0,0E0,0E0,0E0],"parents":[2147483647,0,0,1,1,2,2],"right_children":[2,4,6,-1,-1,-1,-1],"split_conditions":[8.8752633E-1,-2.0989826E0,9.3E-1,2.6801355E-2,3.8015645E-3,-1.4978848E-2,-4.0553987E-2],"split_indices":[5,5,6,0,0,0,0],"split_type":[0,0,0,0,0,0,0],"sum_hessian":[1.58E2,1.08E2,5E1,2.9E1,7.9E1,2.6E1,2.4E1],"tree_param":{"num_deleted":"0","num_feature":"11","num_nodes":"7","size_leaf_vector":"1"}},{"base_weights":[2.3571107E-1,1.58274E0,-2.6007729E0,3.162478E-2,8.598357E-3,-1.290878E-2,-3.8286377E-2],"categories":[],"categories_nodes":[],"categories_segments":[],"categories_sizes":[],"default_left":[0,0,0,0,0,0,0],"id":20,"left_children":[1,3,5,-1,-1,-1,-1],"loss_changes":[6.882082E2,1.21705536E2,6.345462E1,0E0,0E0,0E0,0E0],"parents":[2147483647,0,0,1,1,2,2],"right_children":[2,4,6,-1,-1,-1,-1],"split_conditions":[9.1545457E-1,-2.9430218E0,2.567421E0,3.162478E-2,8.598357E-3,-1.290878E-2,-3.8286377E-2],"split_indices":[5,5,5,0,0,0,0],"split_type":[0,0,0,0,0,0,0],"sum_hessian":[1.7E2,1.17E2,5.3E1,3.1E1,8.6E1,3.1E1,2.2E1],"tree_param":{"num_deleted":"0","num_feature":"11","num_nodes":"7","size_leaf_vector":"1"}},{"base_weights":[-5.0233567E-1,8.840419E-1,-3.375465E0,2.1189373E-2,4.5808163E-3,-1.7102739E-2,-4.8013873E-2],"categories":[],"categories_nodes":[],"categories_segments":[],"categories_sizes":[],"default_left":[0,0,0,0,0,0,0],"id":21,"left_children":[1,3,5,-1,-1,-1,-1],"loss_changes":[6.626969E2,5.2009583E1,8.064929E1,0E0,0E0,0E0,0E0],"parents":[2147483647,0,0,1,1,2,2],"right_children":[2,4,6,-1,-1,-1,-1],"split_conditions":[8.8752633E-1,-2.6031384E0,3.7727706E0,2.1189373E-2,4.5808163E-3,-1.7102739E-2,-4.8013873E-2],"split_indices":[5,5,5,0,0,0,0],"split_type":[0,0,0,0,0,0,0],"sum_hessian":[1.57E2,1.08E2,4.9E1,2.2E1,8.6E1,2.8E1,2.1E1],"tree_param":{"num_deleted":"0","num_feature":"11","num_nodes":"7","size_leaf_vector":"1"}},{"base_weights":[2.1764146E-1,1.5180881E0,-2.3616047E0,2.8073356E-2,6.40991E-3,-9.580669E-3,-3.870378E-2],"categories":[],"categories_nodes":[],"categories_segments":[],"categories_sizes":[],"default_left":[0,0,0,0,0,0,0],"id":22,"left_children":[1,3,5,-1,-1,-1,-1],"loss_changes":[5.6045795E2,1.13072556E2,9.5217926E1,0E0,0E0,0E0,0E0],"parents":[2147483647,0,0,1,1,2,2],"right_children":[2,4,6,-1,-1,-1,-1],"split_conditions":[8.8752633E-1,-2.3622727E0,3.1788182E0,2.8073356E-2,6.40991E-3,-9.580669E-3,-3.870378E-2],"split_indices":[5,5,5,0,0,0,0],"split_type":[0,0,0,0,0,0,0],"sum_hessian":[1.57E2,1.06E2,5.1E1,3.8E1,6.8E1,3.1E1,2E1],"tree_param":{"num_deleted":"0","num_feature":"11","num_nodes":"7","size_leaf_vector":"1"}},{"base_weights":[-1.4887238E-1,1.1498923E0,-3.1009853E0,3.0073604E-2,4.781342E-3,-1.4371363E-2,-4.570515E-2],"categories":[],"categories_nodes":[],"categories_segments":[],"categories_sizes":[],"default_left":[0,0,0,0,0,0,0],"id":23,"left_children":[1,3,5,-1,-1,-1,-1],"loss_changes":[6.524066E2,1.3656168E2,8.8293976E1,0E0,0E0,0E0,0E0],"parents":[2147483647,0,0,1,1,2,2],"right_children":[2,4,6,-1,-1,-1,-1],"split_conditions":[9.1545457E-1,-2.9109523E0,9.6E-1,3.0073604E-2,4.781342E-3,-1.4371363E-2,-4.570515E-2],"split_indices":[5,5,6,0,0,0,0],"split_type":[0,0,0,0,0,0,0],"sum_hessian":[1.6E2,1.13E2,4.7E1,2.5E1,8.8E1,2.7E1,2E1],"tree_param":{"num_deleted":"0","num_feature":"11","num_nodes":"7","size_leaf_vector":"1"}},{"base_weights":[2.285258E-1,1.1092854E0,-2.4169223E0,3.2765012E-2,4.5871353E-3,-1.3362936E-2,-2.9741667E-2],"categories":[],"categories_nodes":[],"categories_segments":[],"categories_sizes":[],"default_left":[0,0,0,0,0,0,0],"id":24,"left_children":[1,3,5,-1,-1,-1,-1],"loss_changes":[4.198483E2,1.790904E2,2.9155579E0,0E0,0E0,0E0,0E0],"parents":[2147483647,0,0,1,1,2,2],"right_children":[2,4,6,-1,-1,-1,-1],"split_conditions":[1.332684E0,-2.9430218E0,2.607177E0,3.2765012E-2,4.5871353E-3,-1.3362936E-2,-2.9741667E-2],"split_indices":[5,5,5,0,0,0,0],"split_type":[0,0,0,0,0,0,0],"sum_hessian":[1.7E2,1.3E2,4E1,2.5E1,1.05E2,2E1,2E1],"tree_param":{"num_deleted":"0","num_feature":"11","num_nodes":"7","size_leaf_vector":"1"}},{"base_weights":[4.1183397E-1,1.933669E0,-1.5388024E0,3.048117E-2,1.2031685E-2,-5.4405266E-3,-3.4590714E-2],"categories":[],"categories_nodes":[],"categories_segments":[],"categories_sizes":[],"default_left":[0,0,0,0,0,0,0],"id":25,"left_children":[1,3,5,-1,-1,-1,-1],"loss_changes":[5.199255E2,5.7194E1,1.3367169E2,0E0,0E0,0E0,0E0],"parents":[2147483647,0,0,1,1,2,2],"right_children":[2,4,6,-1,-1,-1,-1],"split_conditions":[-2.5238095E-2,-2.8256729E0,3.1788182E0,3.048117E-2,1.2031685E-2,-5.4405266E-3,-3.4590714E-2],"split_indices":[5,5,5,0,0,0,0],"split_type":[0,0,0,0,0,0,0],"sum_hessian":[1.65E2,9.3E1,7.2E1,3E1,6.3E1,5.2E1,2E1],"tree_param":{"num_deleted":"0","num_feature":"11","num_nodes":"7","size_leaf_vector":"1"}},{"base_weights":[-7.133236E-2,-2.2642924E-2,2.7376744E-1,1.9551769E-2,-3.5751364E-4],"categories":[],"categories_nodes":[],"categories_segments":[],"categories_sizes":[],"default_left":[0,0,0,0,0],"id":26,"left_children":[1,-1,3,-1,-1],"loss_changes":[1.3904182E2,0E0,8.39761E1,0E0,0E0],"parents":[2147483647,0,0,2,2],"right_children":[2,-1,4,-1,-1],"split_conditions":[-8E-2,-2.2642924E-2,2.5598762E0,1.9551769E-2,-3.5751364E-4],"split_indices":[1,0,8,0,0],"split_type":[0,0,0,0,0],"sum_hessian":[1.72E2,2E1,1.52E2,2E1,1.32E2],"tree_param":{"num_deleted":"0","num_feature":"11","num_nodes":"5","size_leaf_vector":"1"}},{"base_weights":[1.6287912E-2,1.3749459E0,-2.7527888E0,2.4944501E-2,3.028746E-3,-1.3987716E-2,-4.0630996E-2],"categories":[],"categories_nodes":[],"categories_segments":[],"categories_sizes":[],"default_left":[0,0,0,0,0,0,0],"id":27,"left_children":[1,3,5,-1,-1,-1,-1],"loss_changes":[6.985101E2,1.4344872E2,7.434659E1,0E0,0E0,0E0,0E0],"parents":[2147483647,0,0,1,1,2,2],"right_children":[2,4,6,-1,-1,-1,-1],"split_conditions":[8.8752633E-1,-1.5069925E0,2.9216883E0,2.4944501E-2,3.028746E-3,-1.3987716E-2,-4.0630996E-2],"split_indices":[5,5,5,0,0,0,0],"split_type":[0,0,0,0,0,0,0],"sum_hessian":[1.76E2,1.2E2,5.6E1,5.5E1,6.5E1,3.3E1,2.3E1],"tree_param":{"num_deleted":"0","num_feature":"11","num_nodes":"7","size_leaf_vector":"1"}},{"base_weights":[-2.6905048E-1,1.0964081E0,-3.083846E0,2.7552523E-2,4.716745E-3,-1.36682745E-2,-4.827684E-2],"categories":[],"categories_nodes":[],"categories_segments":[],"categories_sizes":[],"default_left":[0,0,0,0,0,0,0],"id":28,"left_children":[1,3,5,-1,-1,-1,-1],"loss_changes":[7.184079E2,1.20853455E2,1.4345874E2,0E0,0E0,0E0,0E0],"parents":[2147483647,0,0,1,1,2,2],"right_children":[2,4,6,-1,-1,-1,-1],"split_conditions":[8.8752633E-1,-3.083295E0,3.7727706E0,2.7552523E-2,4.716745E-3,-1.36682745E-2,-4.827684E-2],"split_indices":[5,5,5,0,0,0,0],"split_type":[0,0,0,0,0,0,0],"sum_hessian":[1.77E2,1.21E2,5.6E1,2.8E1,9.3E1,3.3E1,2.3E1],"tree_param":{"num_deleted":"0","num_feature":"11","num_nodes":"7","size_leaf_vector":"1"}},{"base_weights":[4.2605735E-2,4.173771E-1,-2.1445619E-2,1.5105173E-2,-6.035288E-5],"categories":[],"categories_nodes":[],"categories_segments":[],"categories_sizes":[],"default_left":[0,0,0,0,0],"id":29,"left_children":[1,3,-1,-1,-1],"loss_changes":[1.4045584E2,7.005174E1,0E0,0E0,0E0],"parents":[2147483647,0,0,1,1],"right_children":[2,4,-1,-1,-1],"split_conditions":[1.9665012E0,1.87E-1,-2.1445619E-2,1.5105173E-2,-6.035288E-5],"split_indices":[4,7,0,0,0],"split_type":[0,0,0,0,0],"sum_hessian":[1.63E2,1.43E2,2E1,3.7E1,1.06E2],"tree_param":{"num_deleted":"0","num_feature":"11","num_nodes":"5","size_leaf_vector":"1"}},{"base_weights":[9.495171E-2,6.879491E-1,-2.5852866E-2,1.1313766E-2,-3.6151593E-3],"categories":[],"categories_nodes":[],"categories_segments":[],"categories_sizes":[],"default_left":[0,0,0,0,0],"id":30,"left_children":[1,3,-1,-1,-1],"loss_changes":[2.7242093E2,6.8430916E1,0E0,0E0,0E0],"parents":[2147483647,0,0,1,1],"right_children":[2,4,-1,-1,-1],"split_conditions":[1.5239546E0,2E-2,-2.5852866E-2,1.1313766E-2,-3.6151593E-3],"split_indices":[4,1,0,0,0],"split_type":[0,0,0,0,0],"sum_hessian":[1.62E2,1.36E2,2.6E1,9.6E1,4E1],"tree_param":{"num_deleted":"0","num_feature":"11","num_nodes":"5","size_leaf_vector":"1"}},{"base_weights":[1.788545E-1,1.3717706E0,-2.6408179E-2,2.9899107E-2,7.5052753E-3],"categories":[],"categories_nodes":[],"categories_segments":[],"categories_sizes":[],"default_left":[0,0,0,0,0],"id":31,"left_children":[1,3,-1,-1,-1],"loss_changes":[5.886615E2,1.08686295E2,0E0,0E0,0E0],"parents":[2147483647,0,0,1,1],"right_children":[2,4,-1,-1,-1],"split_conditions":[8.8752633E-1,-2.9430218E0,-2.6408179E-2,2.9899107E-2,7.5052753E-3],"split_indices":[5,5,0,0,0],"split_type":[0,0,0,0,0],"sum_hessian":[1.65E2,1.18E2,4.7E1,2.7E1,9.1E1],"tree_param":{"num_deleted":"0","num_feature":"11","num_nodes":"5","size_leaf_vector":"1"}},{"base_weights":[-1.3050093E-2,1.6965802E0,-2.247254E0,2.7865803E-2,8.427483E-3,-9.085176E-3,-4.4104595E-2],"categories":[],"categories_nodes":[],"categories_segments":[],"categories_sizes":[],"default_left":[0,0,0,0,0,0,0],"id":32,"left_children":[1,3,5,-1,-1,-1,-1],"loss_changes":[7.0333356E2,8.141913E1,2.0632309E2,0E0,0E0,0E0,0E0],"parents":[2147483647,0,0,1,1,2,2],"right_children":[2,4,6,-1,-1,-1,-1],"split_conditions":[1.5965368E-1,-2.0989826E0,3.1788182E0,2.7865803E-2,8.427483E-3,-9.085176E-3,-4.4104595E-2],"split_indices":[5,5,5,0,0,0,0],"split_type":[0,0,0,0,0,0,0],"sum_hessian":[1.74E2,9.9E1,7.5E1,3.8E1,6.1E1,5.1E1,2.4E1],"tree_param":{"num_deleted":"0","num_feature":"11","num_nodes":"7","size_leaf_vector":"1"}},{"base_weights":[-1.0494597E-1,9.732661E-1,-2.9745147E-2,2.193186E-2,1.793621E-3],"categories":[],"categories_nodes":[],"categories_segments":[],"categories_sizes":[],"default_left":[0,0,0,0,0],"id":33,"left_children":[1,3,-1,-1,-1],"loss_changes":[4.8676483E2,1.0606949E2,0E0,0E0,0E0],"parents":[2147483647,0,0,1,1],"right_children":[2,4,-1,-1,-1],"split_conditions":[8.8752633E-1,-2.0989826E0,-2.9745147E-2,2.193186E-2,1.793621E-3],"split_indices":[5,5,0,0,0],"split_type":[0,0,0,0,0],"sum_hessian":[1.47E2,1.09E2,3.8E1,3.9E1,7E1],"tree_param":{"num_deleted":"0","num_feature":"11","num_nodes":"5","size_leaf_vector":"1"}},{"base_weights":[2.3917161E-1,1.3260441E0,-2.377269E0,2.5320875E-2,4.768891E-3,-3.4962583E-2,-4.295091E-3],"categories":[],"categories_nodes":[],"categories_segments":[],"categories_sizes":[],"default_left":[0,0,0,0,0,0,0],"id":34,"left_children":[1,3,5,-1,-1,-1,-1],"loss_changes":[5.0383344E2,1.1896811E2,1.0190097E2,0E0,0E0,0E0,0E0],"parents":[2147483647,0,0,1,1,2,2],"right_children":[2,4,6,-1,-1,-1,-1],"split_conditions":[9.1545457E-1,-2.0989826E0,4.5747147E0,2.5320875E-2,4.768891E-3,-3.4962583E-2,-4.295091E-3],"split_indices":[5,5,2,0,0,0,0],"split_type":[0,0,0,0,0,0,0],"sum_hessian":[1.67E2,1.2E2,4.7E1,4.5E1,7.5E1,2.7E1,2E1],"tree_param":{"num_deleted":"0","num_feature":"11","num_nodes":"7","size_leaf_vector":"1"}},{"base_weights":[-8.996944E-2,-6.989604E-1,3.1663743E-1,3.7918244E-3,-1.5931202E-2,7.1477876E-3,-6.9196126E-3],"categories":[],"categories_nodes":[],"categories_segments":[],"categories_sizes":[],"default_left":[0,0,0,0,0,0,0],"id":35,"left_children":[1,3,5,-1,-1,-1,-1],"loss_changes":[4.0117615E1,6.689644E1,4.104604E1,0E0,0E0,0E0,0E0],"parents":[2147483647,0,0,1,1,2,2],"right_children":[2,4,6,-1,-1,-1,-1],"split_conditions":[8.7E-1,7.3E-1,1.25E0,3.7918244E-3,-1.5931202E-2,7.1477876E-3,-6.9196126E-3],"split_indices":[6,6,10,0,0,0,0],"split_type":[0,0,0,0,0,0,0],"sum_hessian":[1.51E2,6E1,9.1E1,2.8E1,3.2E1,6.7E1,2.4E1],"tree_param":{"num_deleted":"0","num_feature":"11","num_nodes":"7","size_leaf_vector":"1"}},{"base_weights":[-8.835111E-2,6.8500304E-1,-4.4340815E-2,2.5472078E-2,1.6874842E-3],"categories":[],"categories_nodes":[],"categories_segments":[],"categories_sizes":[],"default_left":[0,0,0,0,0],"id":36,"left_children":[1,3,-1,-1,-1],"loss_changes":[6.003523E2,1.40302E2,0E0,0E0,0E0],"parents":[2147483647,0,0,1,1],"right_children":[2,4,-1,-1,-1],"split_conditions":[3.7727706E0,-2.8256729E0,-4.4340815E-2,2.5472078E-2,1.6874842E-3],"split_indices":[5,5,0,0,0],"split_type":[0,0,0,0,0],"sum_hessian":[1.68E2,1.46E2,2.2E1,2.7E1,1.19E2],"tree_param":{"num_deleted":"0","num_feature":"11","num_nodes":"5","size_leaf_vector":"1"}},{"base_weights":[-2.2990023E-1,4.842571E-1,-4.086103E-2,1.2262608E-2,-4.423251E-3],"categories":[],"categories_nodes":[],"categories_segments":[],"categories_sizes":[],"default_left":[0,0,0,0,0],"id":37,"left_children":[1,3,-1,-1,-1],"loss_changes":[4.7615662E2,1.0387497E2,0E0,0E0,0E0],"parents":[2147483647,0,0,1,1],"right_children":[2,4,-1,-1,-1],"split_conditions":[3.1788182E0,-1.3060606E-1,-4.086103E-2,1.2262608E-2,-4.423251E-3],"split_indices":[5,5,0,0,0],"split_type":[0,0,0,0,0],"sum_hessian":[1.63E2,1.41E2,2.2E1,7.8E1,6.3E1],"tree_param":{"num_deleted":"0","num_feature":"11","num_nodes":"5","size_leaf_vector":"1"}},{"base_weights":[-2.1956877E-1,1.0042989E0,-2.5582306E0,2.1736963E-2,2.3851853E-3,-3.364081E-2,-9.120094E-3],"categories":[],"categories_nodes":[],"categories_segments":[],"categories_sizes":[],"default_left":[0,0,0,0,0,0,0],"id":38,"left_children":[1,3,5,-1,-1,-1,-1],"loss_changes":[4.7521634E2,9.260513E1,5.6000214E1,0E0,0E0,0E0,0E0],"parents":[2147483647,0,0,1,1,2,2],"right_children":[2,4,6,-1,-1,-1,-1],"split_conditions":[8.8752633E-1,-2.0989826E0,5.92E-1,2.1736963E-2,2.3851853E-3,-3.364081E-2,-9.120094E-3],"split_indices":[5,5,0,0,0,0,0],"split_type":[0,0,0,0,0,0,0],"sum_hessian":[1.56E2,1.04E2,5.2E1,3.7E1,6.7E1,3.1E1,2.1E1],"tree_param":{"num_deleted":"0","num_feature":"11","num_nodes":"7","size_leaf_vector":"1"}},{"base_weights":[-9.095116E-2,1.2701223E0,-3.1853266E0,3.161599E-2,5.248326E-3,-9.188714E-3,-5.137349E-2],"categories":[],"categories_nodes":[],"categories_segments":[],"categories_sizes":[],"default_left":[0,0,0,0,0,0,0],"id":39,"left_children":[1,3,5,-1,-1,-1,-1],"loss_changes":[6.749532E2,1.4449348E2,1.871254E2,0E0,0E0,0E0,0E0],"parents":[2147483647,0,0,1,1,2,2],"right_children":[2,4,6,-1,-1,-1,-1],"split_conditions":[7.9788095E-1,-2.9109523E0,9.8E-1,3.161599E-2,5.248326E-3,-9.188714E-3,-5.137349E-2],"split_indices":[5,5,6,0,0,0,0],"split_type":[0,0,0,0,0,0,0],"sum_hessian":[1.5E2,1.06E2,4.4E1,2.5E1,8.1E1,2.4E1,2E1],"tree_param":{"num_deleted":"0","num_feature":"11","num_nodes":"7","size_leaf_vector":"1"}},{"base_weights":[2.4050487E-4,4.4335887E-1,-2.6370972E-2,1.001924E-2,-4.5370054E-3],"categories":[],"categories_nodes":[],"categories_segments":[],"categories_sizes":[],"default_left":[0,0,0,0,0],"id":40,"left_children":[1,3,-1,-1,-1],"loss_changes":[2.1167238E2,8.148848E1,0E0,0E0,0E0],"parents":[2147483647,0,0,1,1],"right_children":[2,4,-1,-1,-1],"split_conditions":[2.0955274E0,4.6990275E0,-2.6370972E-2,1.001924E-2,-4.5370054E-3],"split_indices":[4,8,0,0,0],"split_type":[0,0,0,0,0],"sum_hessian":[1.73E2,1.52E2,2.1E1,9.4E1,5.8E1],"tree_param":{"num_deleted":"0","num_feature":"11","num_nodes":"5","size_leaf_vector":"1"}},{"base_weights":[2.3447235E-4,1.0204356E0,-2.2816947E0,2.7263083E-2,4.185556E-3,-7.578951E-3,-3.918675E-2],"categories":[],"categories_nodes":[],"categories_segments":[],"categories_sizes":[],"default_left":[0,0,0,0,0,0,0],"id":41,"left_children":[1,3,5,-1,-1,-1,-1],"loss_changes":[4.1545697E2,1.1846419E2,1.1766739E2,0E0,0E0,0E0,0E0],"parents":[2147483647,0,0,1,1,2,2],"right_children":[2,4,6,-1,-1,-1,-1],"split_conditions":[7.9788095E-1,-2.9109523E0,9.8E-1,2.7263083E-2,4.185556E-3,-7.578951E-3,-3.918675E-2],"split_indices":[5,5,6,0,0,0,0],"split_type":[0,0,0,0,0,0,0],"sum_hessian":[1.69E2,1.19E2,5E1,2.6E1,9.3E1,3E1,2E1],"tree_param":{"num_deleted":"0","num_feature":"11","num_nodes":"7","size_leaf_vector":"1"}},{"base_weights":[-4.0434964E-2,3.3103707E-1,-2.230025E-2,2.1131901E-2,-1.4486206E-4],"categories":[],"categories_nodes":[],"categories_segments":[],"categories_sizes":[],"default_left":[0,0,0,0,0],"id":42,"left_children":[1,3,-1,-1,-1],"loss_changes":[1.511836E2,9.8928505E1,0E0,0E0,0E0],"parents":[2147483647,0,0,1,1],"right_children":[2,4,-1,-1,-1],"split_conditions":[2.110327E0,2.489395E0,-2.230025E-2,2.1131901E-2,-1.4486206E-4],"split_indices":[4,8,0,0,0],"split_type":[0,0,0,0,0],"sum_hessian":[1.74E2,1.52E2,2.2E1,2.1E1,1.31E2],"tree_param":{"num_deleted":"0","num_feature":"11","num_nodes":"5","size_leaf_vector":"1"}},{"base_weights":[-4.8857817E-1,8.097132E-2,-2.4398632E-2,7.623055E-3,-5.566723E-3],"categories":[],"categories_nodes":[],"categories_segments":[],"categories_sizes":[],"default_left":[0,0,0,0,0],"id":43,"left_children":[1,3,-1,-1,-1],"loss_changes":[2.0227895E2,6.445352E1,0E0,0E0,0E0],"parents":[2147483647,0,0,1,1],"right_children":[2,4,-1,-1,-1],"split_conditions":[1.2E0,0E0,-2.4398632E-2,7.623055E-3,-5.566723E-3],"split_indices":[6,9,0,0,0],"split_type":[0,0,0,0,0],"sum_hessian":[1.74E2,1.38E2,3.6E1,6.7E1,7.1E1],"tree_param":{"num_deleted":"0","num_feature":"11","num_nodes":"5","size_leaf_vector":"1"}},{"base_weights":[-2.7421033E-1,1.0061322E0,-3.0111756E0,2.651799E-2,5.344089E-3,-1.4009958E-2,-4.687599E-2],"categories":[],"categories_nodes":[],"categories_segments":[],"categories_sizes":[],"default_left":[0,0,0,0,0,0,0],"id":44,"left_children":[1,3,5,-1,-1,-1,-1],"loss_changes":[6.163805E2,8.288402E1,1.1223807E2,0E0,0E0,0E0,0E0],"parents":[2147483647,0,0,1,1,2,2],"right_children":[2,4,6,-1,-1,-1,-1],"split_conditions":[8.8752633E-1,-3.931381E0,1.04E0,2.651799E-2,5.344089E-3,-1.4009958E-2,-4.687599E-2],"split_indices":[5,5,6,0,0,0,0],"split_type":[0,0,0,0,0,0,0],"sum_hessian":[1.66E2,1.15E2,5.1E1,2E1,9.5E1,3.1E1,2E1],"tree_param":{"num_deleted":"0","num_feature":"11","num_nodes":"7","size_leaf_vector":"1"}},{"base_weights":[1.954926E-1,1.2756054E0,-2.2700002E0,2.9704312E-2,4.8811575E-3,-6.4748516E-3,-3.5673376E-2],"categories":[],"categories_nodes":[],"categories_segments":[],"categories_sizes":[],"default_left":[0,0,0,0,0,0,0],"id":45,"left_children":[1,3,5,-1,-1,-1,-1],"loss_changes":[4.635325E2,1.5078549E2,9.579852E1,0E0,0E0,0E0,0E0],"parents":[2147483647,0,0,1,1,2,2],"right_children":[2,4,6,-1,-1,-1,-1],"split_conditions":[8.8752633E-1,-2.6031384E0,9.1E-1,2.9704312E-2,4.8811575E-3,-6.4748516E-3,-3.5673376E-2],"split_indices":[5,5,6,0,0,0,0],"split_type":[0,0,0,0,0,0,0],"sum_hessian":[1.64E2,1.16E2,4.8E1,3.2E1,8.4E1,2.5E1,2.3E1],"tree_param":{"num_deleted":"0","num_feature":"11","num_nodes":"7","size_leaf_vector":"1"}},{"base_weights":[3.3080956E-1,7.6083285E-1,-3.0256736E-1,-4.1903634E-4,1.4721242E-2,2.2051355E-3,-7.621078E-3],"categories":[],"categories_nodes":[],"categories_segments":[],"categories_sizes":[],"default_left":[0,0,0,0,0,0,0],"id":46,"left_children":[1,3,5,-1,-1,-1,-1],"loss_changes":[4.9001106E1,6.226249E1,1.8929377E1,0E0,0E0,0E0,0E0],"parents":[2147483647,0,0,1,1,2,2],"right_children":[2,4,6,-1,-1,-1,-1],"split_conditions":[4.694673E0,4.06E-1,4.5E-1,-4.1903634E-4,1.4721242E-2,2.2051355E-3,-7.621078E-3],"split_indices":[8,7,0,0,0,0,0],"split_type":[0,0,0,0,0,0,0],"sum_hessian":[1.69E2,1.01E2,6.8E1,4.9E1,5.2E1,3.2E1,3.6E1],"tree_param":{"num_deleted":"0","num_feature":"11","num_nodes":"7","size_leaf_vector":"1"}},{"base_weights":[2.6005533E-1,1.4253963E-2,-8.489993E-2,6.0055074E-3,-4.2286026E-3],"categories":[],"categories_nodes":[],"categories_segments":[],"categories_sizes":[],"default_left":[0,0,0,0,0],"id":47,"left_children":[1,-1,3,-1,-1],"loss_changes":[7.068595E1,0E0,3.2597157E1,0E0,0E0],"parents":[2147483647,0,0,2,2],"right_children":[2,-1,4,-1,-1],"split_conditions":[-1E-1,1.4253963E-2,2.67E-1,6.0055074E-3,-4.2286026E-3],"split_indices":[3,0,0,0,0],"split_type":[0,0,0,0,0],"sum_hessian":[1.66E2,3.5E1,1.31E2,4.1E1,9E1],"tree_param":{"num_deleted":"0","num_feature":"11","num_nodes":"5","size_leaf_vector":"1"}},{"base_weights":[2.1863887E-1,1.204508E0,-2.4793131E0,2.5099121E-2,3.6816522E-3,-8.098522E-3,-3.551078E-2],"categories":[],"categories_nodes":[],"categories_segments":[],"categories_sizes":[],"default_left":[0,0,0,0,0,0,0],"id":48,"left_children":[1,3,5,-1,-1,-1,-1],"loss_changes":[4.8710626E2,1.3879816E2,6.893399E1,0E0,0E0,0E0,0E0],"parents":[2147483647,0,0,1,1,2,2],"right_children":[2,4,6,-1,-1,-1,-1],"split_conditions":[1.332684E0,-2.0989826E0,2.9216883E0,2.5099121E-2,3.6816522E-3,-8.098522E-3,-3.551078E-2],"split_indices":[5,5,5,0,0,0,0],"split_type":[0,0,0,0,0,0,0],"sum_hessian":[1.73E2,1.29E2,4.4E1,4.6E1,8.3E1,2.1E1,2.3E1],"tree_param":{"num_deleted":"0","num_feature":"11","num_nodes":"7","size_leaf_vector":"1"}},{"base_weights":[1.442939E-1,9.186843E-1,-4.2909645E-2,1.5918983E-2,-2.1256281E-4],"categories":[],"categories_nodes":[],"categories_segments":[],"categories_sizes":[],"default_left":[0,0,0,0,0],"id":49,"left_children":[1,3,-1,-1,-1],"loss_changes":[6.24266E2,9.982092E1,0E0,0E0,0E0],"parents":[2147483647,0,0,1,1],"right_children":[2,4,-1,-1,-1],"split_conditions":[2.5359092E0,-3.6019048E-1,-4.2909645E-2,1.5918983E-2,-2.1256281E-4],"split_indices":[5,5,0,0,0],"split_type":[0,0,0,0,0],"sum_hessian":[1.72E2,1.5E2,2.2E1,8.6E1,6.4E1],"tree_param":{"num_deleted":"0","num_feature":"11","num_nodes":"5","size_leaf_vector":"1"}},{"base_weights":[-6.363343E-2,-1.0331129E0,3.0319205E-1,3.2318032E-3,-2.1848928E-2,-3.330888E-3,1.9502597E-2],"categories":[],"categories_nodes":[],"categories_segments":[],"categories_sizes":[],"default_left":[0,0,0,0,0,0,0],"id":50,"left_children":[1,3,5,-1,-1,-1,-1],"loss_changes":[6.204188E1,8.037555E1,1.3586491E2,0E0,0E0,0E0,0E0],"parents":[2147483647,0,0,1,1,2,2],"right_children":[2,4,6,-1,-1,-1,-1],"split_conditions":[3.4786656E0,1.14E0,1E0,3.2318032E-3,-2.1848928E-2,-3.330888E-3,1.9502597E-2],"split_indices":[2,6,10,0,0,0,0],"split_type":[0,0,0,0,0,0,0],"sum_hessian":[1.63E2,4.3E1,1.2E2,2.1E1,2.2E1,8.9E1,3.1E1],"tree_param":{"num_deleted":"0","num_feature":"11","num_nodes":"7","size_leaf_vector":"1"}},{"base_weights":[-2.2509825E-1,1.4613828E-1,-2.379122E-2,7.3247417E-3,-3.951105E-3],"categories":[],"categories_nodes":[],"categories_segments":[],"categories_sizes":[],"default_left":[0,0,0,0,0],"id":51,"left_children":[1,3,-1,-1,-1],"loss_changes":[1.4710915E2,5.160892E1,0E0,0E0,0E0],"parents":[2147483647,0,0,1,1],"right_children":[2,4,-1,-1,-1],"split_conditions":[2.110327E0,0E0,-2.379122E-2,7.3247417E-3,-3.951105E-3],"split_indices":[4,9,0,0,0],"split_type":[0,0,0,0,0],"sum_hessian":[1.74E2,1.52E2,2.2E1,7.3E1,7.9E1],"tree_param":{"num_deleted":"0","num_feature":"11","num_nodes":"5","size_leaf_vector":"1"}},{"base_weights":[-2.2574633E-1,2.433633E-1,-2.5506794E-2,6.717134E-3,-1.1580289E-2],"categories":[],"categories_nodes":[],"categories_segments":[],"categories_sizes":[],"default_left":[0,0,0,0,0],"id":52,"left_children":[1,3,-1,-1,-1],"loss_changes":[1.8863997E2,8.984427E1,0E0,0E0,0E0],"parents":[2147483647,0,0,1,1],"right_children":[2,4,-1,-1,-1],"split_conditions":[1.6795907E0,8E-1,-2.5506794E-2,6.717134E-3,-1.1580289E-2],"split_indices":[4,7,0,0,0],"split_type":[0,0,0,0,0],"sum_hessian":[1.63E2,1.39E2,2.4E1,1.09E2,3E1],"tree_param":{"num_deleted":"0","num_feature":"11","num_nodes":"5","size_leaf_vector":"1"}},{"base_weights":[1.3403996E-2,-1.5278708E-2,2.9895705E-1,7.071838E-3,-4.661811E-3],"categories":[],"categories_nodes":[],"categories_segments":[],"categories_sizes":[],"default_left":[0,0,0,0,0],"id":53,"left_children":[1,-1,3,-1,-1],"loss_changes":[7.631472E1,0E0,4.8429516E1,0E0,0E0],"parents":[2147483647,0,0,2,2],"right_children":[2,-1,4,-1,-1],"split_conditions":[-9E-2,-1.5278708E-2,2E-2,7.071838E-3,-4.661811E-3],"split_indices":[1,0,1,0,0],"split_type":[0,0,0,0,0],"sum_hessian":[1.66E2,2.2E1,1.44E2,9.5E1,4.9E1],"tree_param":{"num_deleted":"0","num_feature":"11","num_nodes":"5","size_leaf_vector":"1"}},{"base_weights":[1.11927316E-1,1.0804504E0,-1.9953419E0,2.7947644E-2,5.55989E-3,-8.454804E-3,-3.297953E-2],"categories":[],"categories_nodes":[],"categories_segments":[],"categories_sizes":[],"default_left":[0,0,0,0,0,0,0],"id":54,"left_children":[1,3,5,-1,-1,-1,-1],"loss_changes":[3.8947903E2,1.06660965E2,7.178415E1,0E0,0E0,0E0,0E0],"parents":[2147483647,0,0,1,1,2,2],"right_children":[2,4,6,-1,-1,-1,-1],"split_conditions":[7.549351E-1,-3.6261039E0,3.1788182E0,2.7947644E-2,5.55989E-3,-8.454804E-3,-3.297953E-2],"split_indices":[5,5,5,0,0,0,0],"split_type":[0,0,0,0,0,0,0],"sum_hessian":[1.81E2,1.26E2,5.5E1,2.4E1,1.02E2,3.4E1,2.1E1],"tree_param":{"num_deleted":"0","num_feature":"11","num_nodes":"7","size_leaf_vector":"1"}},{"base_weights":[7.4374385E-2,4.1246384E-1,-5.471677E-1,1.4654953E-2,9.98244E-4,7.118601E-3,-1.3221398E-2],"categories":[],"categories_nodes":[],"categories_segments":[],"categories_sizes":[],"default_left":[0,0,0,0,0,0,0],"id":55,"left_children":[1,3,5,-1,-1,-1,-1],"loss_changes":[3.671699E1,3.5234207E1,6.483458E1,0E0,0E0,0E0,0E0],"parents":[2147483647,0,0,1,1,2,2],"right_children":[2,4,6,-1,-1,-1,-1],"split_conditions":[2E-2,2.9313998E0,2.14E-1,1.4654953E-2,9.98244E-4,7.118601E-3,-1.3221398E-2],"split_indices":[1,2,7,0,0,0,0],"split_type":[0,0,0,0,0,0,0],"sum_hessian":[1.65E2,1.09E2,5.6E1,2E1,8.9E1,2.1E1,3.5E1],"tree_param":{"num_deleted":"0","num_feature":"11","num_nodes":"7","size_leaf_vector":"1"}},{"base_weights":[-1.3450752E-1,2.671765E-1,-2.4377223E-2,-1.0121828E-2,5.499883E-3],"categories":[],"categories_nodes":[],"categories_segments":[],"categories_sizes":[],"default_left":[0,0,0,0,0],"id":56,"left_children":[1,3,-1,-1,-1],"loss_changes":[1.6825604E2,5.804122E1,0E0,0E0,0E0],"parents":[2147483647,0,0,1,1],"right_children":[2,4,-1,-1,-1],"split_conditions":[2E-1,-1E-2,-2.4377223E-2,-1.0121828E-2,5.499883E-3],"split_indices":[3,1,0,0,0],"split_type":[0,0,0,0,0],"sum_hessian":[1.71E2,1.49E2,2.2E1,2.4E1,1.25E2],"tree_param":{"num_deleted":"0","num_feature":"11","num_nodes":"5","size_leaf_vector":"1"}},{"base_weights":[-8.724881E-2,1.0146542E0,-1.972736E0,2.920471E-2,2.2967113E-3,-7.799685E-3,-3.3313E-2],"categories":[],"categories_nodes":[],"categories_segments":[],"categories_sizes":[],"default_left":[0,0,0,0,0,0,0],"id":57,"left_children":[1,3,5,-1,-1,-1,-1],"loss_changes":[3.600071E2,1.5656378E2,8.660603E1,0E0,0E0,0E0,0E0],"parents":[2147483647,0,0,1,1,2,2],"right_children":[2,4,6,-1,-1,-1,-1],"split_conditions":[6.509524E-1,-2.9430218E0,2.9216883E0,2.920471E-2,2.2967113E-3,-7.799685E-3,-3.3313E-2],"split_indices":[5,5,5,0,0,0,0],"split_type":[0,0,0,0,0,0,0],"sum_hessian":[1.63E2,1.04E2,5.9E1,2.6E1,7.8E1,3.6E1,2.3E1],"tree_param":{"num_deleted":"0","num_feature":"11","num_nodes":"7","size_leaf_vector":"1"}},{"base_weights":[-4.711614E-3,-1.1528115E-2,2.9354963E-1,6.791313E-3,-5.993984E-3],"categories":[],"categories_nodes":[],"categories_segments":[],"categories_sizes":[],"default_left":[0,0,0,0,0],"id":58,"left_children":[1,-1,3,-1,-1],"loss_changes":[6.281963E1,0E0,5.135062E1,0E0,0E0],"parents":[2147483647,0,0,2,2],"right_children":[2,-1,4,-1,-1],"split_conditions":[-1E-2,-1.1528115E-2,7.61E-1,6.791313E-3,-5.993984E-3],"split_indices":[1,0,7,0,0],"split_type":[0,0,0,0,0],"sum_hessian":[1.71E2,3.3E1,1.38E2,9.8E1,4E1],"tree_param":{"num_deleted":"0","num_feature":"11","num_nodes":"5","size_leaf_vector":"1"}},{"base_weights":[2.2137643E-1,5.6305164E-1,-9.312591E-3,6.915393E-4,1.5538674E-2],"categories":[],"categories_nodes":[],"categories_segments":[],"categories_sizes":[],"default_left":[0,0,0,0,0],"id":59,"left_children":[1,3,-1,-1,-1],"loss_changes":[7.077942E1,6.537161E1,0E0,0E0,0E0],"parents":[2147483647,0,0,1,1],"right_children":[2,4,-1,-1,-1],"split_conditions":[1.17E0,1E0,-9.312591E-3,6.915393E-4,1.5538674E-2],"split_indices":[6,10,0,0,0],"split_type":[0,0,0,0,0],"sum_hessian":[1.69E2,1.33E2,3.6E1,9.3E1,4E1],"tree_param":{"num_deleted":"0","num_feature":"11","num_nodes":"5","size_leaf_vector":"1"}},{"base_weights":[-2.5915152E-1,5.6692886E-1,-5.0822977E-2,2.9446922E-2,8.7684375E-4],"categories":[],"categories_nodes":[],"categories_segments":[],"categories_sizes":[],"default_left":[0,0,0,0,0],"id":60,"left_children":[1,3,-1,-1,-1],"loss_changes":[7.3609705E2,1.7572234E2,0E0,0E0,0E0],"parents":[2147483647,0,0,1,1],"right_children":[2,4,-1,-1,-1],"split_conditions":[3.1788182E0,-3.6261039E0,-5.0822977E-2,2.9446922E-2,8.7684375E-4],"split_indices":[5,5,0,0,0],"split_type":[0,0,0,0,0],"sum_hessian":[1.75E2,1.53E2,2.2E1,2.1E1,1.32E2],"tree_param":{"num_deleted":"0","num_feature":"11","num_nodes":"5","size_leaf_vector":"1"}},{"base_weights":[-3.7045237E-2,-4.033909E-1,1.361274E-2,1.021084E-2,-8.278313E-3],"categories":[],"categories_nodes":[],"categories_segments":[],"categories_sizes":[],"default_left":[0,0,0,0,0],"id":61,"left_children":[1,3,-1,-1,-1],"loss_changes":[8.426293E1,8.3840996E1,0E0,0E0,0E0],"parents":[2147483647,0,0,1,1],"right_children":[2,4,-1,-1,-1],"split_conditions":[8.51E-1,-1E-3,1.361274E-2,1.021084E-2,-8.278313E-3],"split_indices":[0,0,0,0,0],"split_type":[0,0,0,0,0],"sum_hessian":[1.56E2,1.27E2,2.9E1,2.7E1,1E2],"tree_param":{"num_deleted":"0","num_feature":"11","num_nodes":"5","size_leaf_vector":"1"}},{"base_weights":[-6.693517E-2,1.1714008E0,-2.8159816E0,2.0990653E-2,2.9088142E-3,-1.1065138E-2,-4.6029404E-2],"categories":[],"categories_nodes":[],"categories_segments":[],"categories_sizes":[],"default_left":[0,0,0,0,0,0,0],"id":62,"left_children":[1,3,5,-1,-1,-1,-1],"loss_changes":[6.24093E2,9.747728E1,1.4294516E2,0E0,0E0,0E0,0E0],"parents":[2147483647,0,0,1,1,2,2],"right_children":[2,4,6,-1,-1,-1,-1],"split_conditions":[8.8752633E-1,-1.5926363E0,1.04E0,2.0990653E-2,2.9088142E-3,-1.1065138E-2,-4.6029404E-2],"split_indices":[5,5,6,0,0,0,0],"split_type":[0,0,0,0,0,0,0],"sum_hessian":[1.73E2,1.21E2,5.2E1,5.5E1,6.6E1,3.1E1,2.1E1],"tree_param":{"num_deleted":"0","num_feature":"11","num_nodes":"7","size_leaf_vector":"1"}},{"base_weights":[-7.187662E-2,3.2656342E-1,-2.472204E-2,-5.3330855E-3,7.461814E-3],"categories":[],"categories_nodes":[],"categories_segments":[],"categories_sizes":[],"default_left":[0,0,0,0,0],"id":63,"left_children":[1,3,-1,-1,-1],"loss_changes":[1.6781163E2,5.596444E1,0E0,0E0,0E0],"parents":[2147483647,0,0,1,1],"right_children":[2,4,-1,-1,-1],"split_conditions":[2E-1,3.8313103E0,-2.472204E-2,-5.3330855E-3,7.461814E-3],"split_indices":[3,2,0,0,0],"split_type":[0,0,0,0,0],"sum_hessian":[1.64E2,1.44E2,2E1,4.6E1,9.8E1],"tree_param":{"num_deleted":"0","num_feature":"11","num_nodes":"5","size_leaf_vector":"1"}},{"base_weights":[3.7303114E-1,9.843399E-1,-3.4272373E-2,2.8352039E-2,2.6931444E-3],"categories":[],"categories_nodes":[],"categories_segments":[],"categories_sizes":[],"default_left":[0,0,0,0,0],"id":64,"left_children":[1,3,-1,-1,-1],"loss_changes":[4.1865085E2,1.9688356E2,0E0,0E0,0E0],"parents":[2147483647,0,0,1,1],"right_children":[2,4,-1,-1,-1],"split_conditions":[3.1788182E0,-2.0989826E0,-3.4272373E-2,2.8352039E-2,2.6931444E-3],"split_indices":[5,5,0,0,0],"split_type":[0,0,0,0,0],"sum_hessian":[1.69E2,1.49E2,2E1,3.7E1,1.12E2],"tree_param":{"num_deleted":"0","num_feature":"11","num_nodes":"5","size_leaf_vector":"1"}},{"base_weights":[-3.8325313E-2,9.6531695E-1,-2.5033798E0,2.6423788E-2,4.542444E-3,-9.553972E-3,-3.6080692E-2],"categories":[],"categories_nodes":[],"categories_segments":[],"categories_sizes":[],"default_left":[0,0,0,0,0,0,0],"id":65,"left_children":[1,3,5,-1,-1,-1,-1],"loss_changes":[4.2678433E2,9.546818E1,6.370285E1,0E0,0E0,0E0,0E0],"parents":[2147483647,0,0,1,1,2,2],"right_children":[2,4,6,-1,-1,-1,-1],"split_conditions":[1.332684E0,-2.9430218E0,3.807143E0,2.6423788E-2,4.542444E-3,-9.553972E-3,-3.6080692E-2],"split_indices":[5,5,5,0,0,0,0],"split_type":[0,0,0,0,0,0,0],"sum_hessian":[1.62E2,1.17E2,4.5E1,2.2E1,9.5E1,2.3E1,2.2E1],"tree_param":{"num_deleted":"0","num_feature":"11","num_nodes":"7","size_leaf_vector":"1"}},{"base_weights":[1.02342114E-1,1.100505E0,-2.590843E0,3.0763498E-2,5.2269027E-3,-1.3880064E-2,-3.3032417E-2],"categories":[],"categories_nodes":[],"categories_segments":[],"categories_sizes":[],"default_left":[0,0,0,0,0,0,0],"id":66,"left_children":[1,3,5,-1,-1,-1,-1],"loss_changes":[4.7783096E2,1.3677843E2,1.351532E1,0E0,0E0,0E0,0E0],"parents":[2147483647,0,0,1,1,2,2],"right_children":[2,4,6,-1,-1,-1,-1],"split_conditions":[9.7845453E-1,-3.6261039E0,2.8272274E0,3.0763498E-2,5.2269027E-3,-1.3880064E-2,-3.3032417E-2],"split_indices":[5,5,5,0,0,0,0],"split_type":[0,0,0,0,0,0,0],"sum_hessian":[1.68E2,1.25E2,4.3E1,2.3E1,1.02E2,2.2E1,2.1E1],"tree_param":{"num_deleted":"0","num_feature":"11","num_nodes":"7","size_leaf_vector":"1"}},{"base_weights":[-9.3336895E-2,4.5754212E-1,-1.4308723E0,9.38876E-3,-8.220074E-3,-2.0738024E-2,-4.4024736E-3],"categories":[],"categories_nodes":[],"categories_segments":[],"categories_sizes":[],"default_left":[0,0,0,0,0,0,0],"id":67,"left_children":[1,3,5,-1,-1,-1,-1],"loss_changes":[1.412953E2,8.712091E1,2.8587563E1,0E0,0E0,0E0,0E0],"parents":[2147483647,0,0,1,1,2,2],"right_children":[2,4,6,-1,-1,-1,-1],"split_conditions":[1.16E0,6.2556024E0,3.3123002E0,9.38876E-3,-8.220074E-3,-2.0738024E-2,-4.4024736E-3],"split_indices":[6,8,8,0,0,0,0],"split_type":[0,0,0,0,0,0,0],"sum_hessian":[1.81E2,1.3E2,5.1E1,9.6E1,3.4E1,2.7E1,2.4E1],"tree_param":{"num_deleted":"0","num_feature":"11","num_nodes":"7","size_leaf_vector":"1"}},{"base_weights":[-2.0770835E-2,7.1709174E-1,-3.7918724E-2,2.6782447E-2,1.5590544E-3],"categories":[],"categories_nodes":[],"categories_segments":[],"categories_sizes":[],"default_left":[0,0,0,0,0],"id":68,"left_children":[1,3,-1,-1,-1],"loss_changes":[4.9248727E2,1.5686221E2,0E0,0E0,0E0],"parents":[2147483647,0,0,1,1],"right_children":[2,4,-1,-1,-1],"split_conditions":[3.1788182E0,-2.9109523E0,-3.7918724E-2,2.6782447E-2,1.5590544E-3],"split_indices":[5,5,0,0,0],"split_type":[0,0,0,0,0],"sum_hessian":[1.66E2,1.42E2,2.4E1,2.7E1,1.15E2],"tree_param":{"num_deleted":"0","num_feature":"11","num_nodes":"5","size_leaf_vector":"1"}},{"base_weights":[2.1559319E-1,4.807971E-1,-1.4954388E-2,1.8058943E-2,1.5130085E-3],"categories":[],"categories_nodes":[],"categories_segments":[],"categories_sizes":[],"default_left":[0,0,0,0,0],"id":69,"left_children":[1,3,-1,-1,-1],"loss_changes":[8.471319E1,6.697159E1,0E0,0E0,0E0],"parents":[2147483647,0,0,1,1],"right_children":[2,4,-1,-1,-1],"split_conditions":[1.9665012E0,-2.8E-2,-1.4954388E-2,1.8058943E-2,1.5130085E-3],"split_indices":[4,0,0,0,0],"split_type":[0,0,0,0,0],"sum_hessian":[1.76E2,1.56E2,2E1,2.6E1,1.3E2],"tree_param":{"num_deleted":"0","num_feature":"11","num_nodes":"5","size_leaf_vector":"1"}},{"base_weights":[1.461749E-1,5.907354E-1,-3.894906E-1,7.2313484E-4,2.0293277E-2,-1.4436616E-2,2.0273817E-3],"categories":[],"categories_nodes":[],"categories_segments":[],"categories_sizes":[],"default_left":[0,0,0,0,0,0,0],"id":70,"left_children":[1,3,5,-1,-1,-1,-1],"loss_changes":[4.2311016E1,6.9506996E1,5.264918E1,0E0,0E0,0E0,0E0],"parents":[2147483647,0,0,1,1,2,2],"right_children":[2,4,6,-1,-1,-1,-1],"split_conditions":[4.6990275E0,4.2727456E0,5.242859E0,7.2313484E-4,2.0293277E-2,-1.4436616E-2,2.0273817E-3],"split_indices":[8,8,2,0,0,0,0],"split_type":[0,0,0,0,0,0,0],"sum_hessian":[1.67E2,9.2E1,7.5E1,7.2E1,2E1,2.5E1,5E1],"tree_param":{"num_deleted":"0","num_feature":"11","num_nodes":"7","size_leaf_vector":"1"}},{"base_weights":[-0E0,7.8433406E-1,-4.1547153E-2,1.750326E-2,-1.8194341E-3],"categories":[],"categories_nodes":[],"categories_segments":[],"categories_sizes":[],"default_left":[0,0,0,0,0],"id":71,"left_children":[1,3,-1,-1,-1],"loss_changes":[6.150483E2,1.5064044E2,0E0,0E0,0E0],"parents":[2147483647,0,0,1,1],"right_children":[2,4,-1,-1,-1],"split_conditions":[3.7727706E0,-7.589348E-1,-4.1547153E-2,1.750326E-2,-1.8194341E-3],"split_indices":[5,5,0,0,0],"split_type":[0,0,0,0,0],"sum_hessian":[1.78E2,1.53E2,2.5E1,7.5E1,7.8E1],"tree_param":{"num_deleted":"0","num_feature":"11","num_nodes":"5","size_leaf_vector":"1"}},{"base_weights":[3.681961E-1,1.3034009E-2,1.2116032E-1,-4.3328274E-3,1.0229666E-2],"categories":[],"categories_nodes":[],"categories_segments":[],"categories_sizes":[],"default_left":[0,0,0,0,0],"id":72,"left_children":[1,-1,3,-1,-1],"loss_changes":[3.7984898E1,0E0,7.4805885E1,0E0,0E0],"parents":[2147483647,0,0,2,2],"right_children":[2,-1,4,-1,-1],"split_conditions":[-2.8E-2,1.3034009E-2,7.13E-1,-4.3328274E-3,1.0229666E-2],"split_indices":[0,0,0,0,0],"split_type":[0,0,0,0,0],"sum_hessian":[1.69E2,3E1,1.39E2,8.7E1,5.2E1],"tree_param":{"num_deleted":"0","num_feature":"11","num_nodes":"5","size_leaf_vector":"1"}},{"base_weights":[1.074134E-1,-1.4593691E-2,4.300002E-1,1.0547072E-2,-8.535428E-3],"categories":[],"categories_nodes":[],"categories_segments":[],"categories_sizes":[],"default_left":[0,0,0,0,0],"id":73,"left_children":[1,-1,3,-1,-1],"loss_changes":[9.2073616E1,0E0,1.2658178E2,0E0,0E0],"parents":[2147483647,0,0,2,2],"right_children":[2,-1,4,-1,-1],"split_conditions":[-8E-2,-1.4593691E-2,3E-2,1.0547072E-2,-8.535428E-3],"split_indices":[1,0,1,0,0],"split_type":[0,0,0,0,0],"sum_hessian":[1.73E2,2.6E1,1.47E2,1E2,4.7E1],"tree_param":{"num_deleted":"0","num_feature":"11","num_nodes":"5","size_leaf_vector":"1"}},{"base_weights":[6.390513E-2,1.4193968E0,-1.733966E0,2.0099409E-2,4.7035147E-3,-2.4803802E-2,-4.457217E-3],"categories":[],"categories_nodes":[],"categories_segments":[],"categories_sizes":[],"default_left":[0,0,0,0,0,0,0],"id":74,"left_children":[1,3,5,-1,-1,-1,-1],"loss_changes":[4.0922226E2,4.6596313E1,6.07787E1,0E0,0E0,0E0,0E0],"parents":[2147483647,0,0,1,1,2,2],"right_children":[2,4,6,-1,-1,-1,-1],"split_conditions":[-2.5238095E-2,-1.5069925E0,4.5747147E0,2.0099409E-2,4.7035147E-3,-2.4803802E-2,-4.457217E-3],"split_indices":[5,5,2,0,0,0,0],"split_type":[0,0,0,0,0,0,0],"sum_hessian":[1.58E2,9.1E1,6.7E1,5.2E1,3.9E1,3.9E1,2.8E1],"tree_param":{"num_deleted":"0","num_feature":"11","num_nodes":"7","size_leaf_vector":"1"}},{"base_weights":[2.0299987E-1,1.2257099E0,-2.3147287E0,1.93705E-2,2.9613401E-3,-1.1997327E-2,-3.160545E-2],"categories":[],"categories_nodes":[],"categories_segments":[],"categories_sizes":[],"default_left":[0,0,0,0,0,0,0],"id":75,"left_children":[1,3,5,-1,-1,-1,-1],"loss_changes":[4.6370547E2,7.953801E1,2.5720917E1,0E0,0E0,0E0,0E0],"parents":[2147483647,0,0,1,1,2,2],"right_children":[2,4,6,-1,-1,-1,-1],"split_conditions":[8.8752633E-1,-8.19329E-1,9.3E-1,1.93705E-2,2.9613401E-3,-1.1997327E-2,-3.160545E-2],"split_indices":[5,5,6,0,0,0,0],"split_type":[0,0,0,0,0,0,0],"sum_hessian":[1.7E2,1.23E2,4.7E1,6.6E1,5.7E1,2.6E1,2.1E1],"tree_param":{"num_deleted":"0","num_feature":"11","num_nodes":"7","size_leaf_vector":"1"}},{"base_weights":[1.4541236E-1,1.1562583E0,-1.9230525E0,2.756943E-2,6.077929E-3,-9.922225E-3,-2.9505366E-2],"categories":[],"categories_nodes":[],"categories_segments":[],"categories_sizes":[],"default_left":[0,0,0,0,0,0,0],"id":76,"left_children":[1,3,5,-1,-1,-1,-1],"loss_changes":[3.7625833E2,9.448534E1,3.784767E1,0E0,0E0,0E0,0E0],"parents":[2147483647,0,0,1,1,2,2],"right_children":[2,4,6,-1,-1,-1,-1],"split_conditions":[9.1545457E-1,-3.083295E0,3.1788182E0,2.756943E-2,6.077929E-3,-9.922225E-3,-2.9505366E-2],"split_indices":[5,5,5,0,0,0,0],"split_type":[0,0,0,0,0,0,0],"sum_hessian":[1.7E2,1.16E2,5.4E1,2.4E1,9.2E1,3.4E1,2E1],"tree_param":{"num_deleted":"0","num_feature":"11","num_nodes":"7","size_leaf_vector":"1"}},{"base_weights":[1.328129E-1,1.0754892E0,-6.897803E-1,1.890642E-2,6.638542E-3,1.8572542E-3,-1.4226575E-2],"categories":[],"categories_nodes":[],"categories_segments":[],"categories_sizes":[],"default_left":[0,0,0,0,0,0,0],"id":77,"left_children":[1,3,5,-1,-1,-1,-1],"loss_changes":[1.4134769E2,1.96913E1,6.479697E1,0E0,0E0,0E0,0E0],"parents":[2147483647,0,0,1,1,2,2],"right_children":[2,4,6,-1,-1,-1,-1],"split_conditions":[-8.6999856E-2,3.1536949E0,0E0,1.890642E-2,6.638542E-3,1.8572542E-3,-1.4226575E-2],"split_indices":[4,2,3,0,0,0,0],"split_type":[0,0,0,0,0,0,0],"sum_hessian":[1.72E2,8E1,9.2E1,2E1,6E1,4.3E1,4.9E1],"tree_param":{"num_deleted":"0","num_feature":"11","num_nodes":"7","size_leaf_vector":"1"}},{"base_weights":[-1.7339185E-1,-2.2994492E-2,2.451294E-1,7.270736E-3,-3.2265733E-3],"categories":[],"categories_nodes":[],"categories_segments":[],"categories_sizes":[],"default_left":[0,0,0,0,0],"id":78,"left_children":[1,-1,3,-1,-1],"loss_changes":[1.5702847E2,0E0,4.1802704E1,0E0,0E0],"parents":[2147483647,0,0,2,2],"right_children":[2,-1,4,-1,-1],"split_conditions":[-9E-2,-2.2994492E-2,3.244359E-1,7.270736E-3,-3.2265733E-3],"split_indices":[1,0,4,0,0],"split_type":[0,0,0,0,0],"sum_hessian":[1.66E2,2.4E1,1.42E2,7.7E1,6.5E1],"tree_param":{"num_deleted":"0","num_feature":"11","num_nodes":"5","size_leaf_vector":"1"}},{"base_weights":[-4.659137E-2,7.4010223E-1,-2.0714908E0,1.6175108E-2,-1.9501485E-3,-3.034995E-2,-5.766083E-3],"categories":[],"categories_nodes":[],"categories_segments":[],"categories_sizes":[],"default_left":[0,0,0,0,0,0,0],"id":79,"left_children":[1,3,5,-1,-1,-1,-1],"loss_changes":[2.67059E2,1.0145727E2,5.5333694E1,0E0,0E0,0E0,0E0],"parents":[2147483647,0,0,1,1,2,2],"right_children":[2,4,6,-1,-1,-1,-1],"split_conditions":[1.332684E0,-3.0779472E-2,6.11E-1,1.6175108E-2,-1.9501485E-3,-3.034995E-2,-5.766083E-3],"split_indices":[5,4,0,0,0,0,0],"split_type":[0,0,0,0,0,0,0],"sum_hessian":[1.57E2,1.15E2,4.2E1,5.8E1,5.7E1,2.2E1,2E1],"tree_param":{"num_deleted":"0","num_feature":"11","num_nodes":"7","size_leaf_vector":"1"}},{"base_weights":[-9.6437745E-2,3.732151E-1,-8.3905107E-1,-2.9028663E-3,1.0821138E-2,-1.6530376E-2,-2.8990721E-3],"categories":[],"categories_nodes":[],"categories_segments":[],"categories_sizes":[],"default_left":[0,0,0,0,0,0,0],"id":80,"left_children":[1,3,5,-1,-1,-1,-1],"loss_changes":[6.202009E1,5.3160835E1,2.6503616E1,0E0,0E0,0E0,0E0],"parents":[2147483647,0,0,1,1,2,2],"right_children":[2,4,6,-1,-1,-1,-1],"split_conditions":[4.6990275E0,3.8101726E0,5.7778344E0,-2.9028663E-3,1.0821138E-2,-1.6530376E-2,-2.8990721E-3],"split_indices":[8,2,2,0,0,0,0],"split_type":[0,0,0,0,0,0,0],"sum_hessian":[1.67E2,1.03E2,6.4E1,5.4E1,4.9E1,2.1E1,4.3E1],"tree_param":{"num_deleted":"0","num_feature":"11","num_nodes":"7","size_leaf_vector":"1"}},{"base_weights":[1.11510055E-2,1.0456818E0,-6.0057473E-1,3.6384943E-3,1.5443258E-2,4.354019E-3,-1.4621329E-2],"categories":[],"categories_nodes":[],"categories_segments":[],"categories_sizes":[],"default_left":[0,0,0,0,0,0,0],"id":81,"left_children":[1,3,5,-1,-1,-1,-1],"loss_changes":[1.06739555E2,1.670179E1,9.792799E1,0E0,0E0,0E0,0E0],"parents":[2147483647,0,0,1,1,2,2],"right_children":[2,4,6,-1,-1,-1,-1],"split_conditions":[-3.3668184E-1,9.8E-1,0E0,3.6384943E-3,1.5443258E-2,4.354019E-3,-1.4621329E-2],"split_indices":[4,10,3,0,0,0,0],"split_type":[0,0,0,0,0,0,0],"sum_hessian":[1.58E2,5.8E1,1E2,2.9E1,2.9E1,4.6E1,5.4E1],"tree_param":{"num_deleted":"0","num_feature":"11","num_nodes":"7","size_leaf_vector":"1"}},{"base_weights":[1.6205943E-1,1.6130982E-2,-1.6628498E-1,8.501115E-3,-5.581198E-3],"categories":[],"categories_nodes":[],"categories_segments":[],"categories_sizes":[],"default_left":[0,0,0,0,0],"id":82,"left_children":[1,-1,3,-1,-1],"loss_changes":[7.758915E1,0E0,5.4650585E1,0E0,0E0],"parents":[2147483647,0,0,2,2],"right_children":[2,-1,4,-1,-1],"split_conditions":[1.7E-2,1.6130982E-2,1.87E-1,8.501115E-3,-5.581198E-3],"split_indices":[0,0,7,0,0],"split_type":[0,0,0,0,0],"sum_hessian":[1.52E2,2.5E1,1.27E2,3.3E1,9.4E1],"tree_param":{"num_deleted":"0","num_feature":"11","num_nodes":"5","size_leaf_vector":"1"}},{"base_weights":[-1.6886756E-1,-9.4179416E-1,2.800926E-1,-5.267541E-3,-1.3325511E-2,7.530413E-3,-7.916697E-3],"categories":[],"categories_nodes":[],"categories_segments":[],"categories_sizes":[],"default_left":[0,0,0,0,0,0,0],"id":83,"left_children":[1,3,5,-1,-1,-1,-1],"loss_changes":[6.3401997E1,5.4971085E0,6.1234367E1,0E0,0E0,0E0,0E0],"parents":[2147483647,0,0,1,1,2,2],"right_children":[2,4,6,-1,-1,-1,-1],"split_conditions":[3.8313103E0,1.15E0,8E-1,-5.267541E-3,-1.3325511E-2,7.530413E-3,-7.916697E-3],"split_indices":[2,10,7,0,0,0,0],"split_type":[0,0,0,0,0,0,0],"sum_hessian":[1.72E2,6.2E1,1.1E2,3.7E1,2.5E1,7.8E1,3.2E1],"tree_param":{"num_deleted":"0","num_feature":"11","num_nodes":"7","size_leaf_vector":"1"}},{"base_weights":[-3.0203477E-1,2.1180044E-1,-9.984648E-1,-1.2581976E-3,8.410645E-3,-2.1467321E-4,-1.4843567E-2],"categories":[],"categories_nodes":[],"categories_segments":[],"categories_sizes":[],"default_left":[0,0,0,0,0,0,0],"id":84,"left_children":[1,3,5,-1,-1,-1,-1],"loss_changes":[6.446784E1,2.333939E1,3.4413208E1,0E0,0E0,0E0,0E0],"parents":[2147483647,0,0,1,1,2,2],"right_children":[2,4,6,-1,-1,-1,-1],"split_conditions":[4.5341525E0,1E-1,3.69E-1,-1.2581976E-3,8.410645E-3,-2.1467321E-4,-1.4843567E-2],"split_indices":[8,3,7,0,0,0,0],"split_type":[0,0,0,0,0,0,0],"sum_hessian":[1.7E2,9.9E1,7.1E1,6.6E1,3.3E1,2.6E1,4.5E1],"tree_param":{"num_deleted":"0","num_feature":"11","num_nodes":"7","size_leaf_vector":"1"}},{"base_weights":[4.1901235E-2,1.0470663E0,-2.187655E0,2.7426865E-2,5.4204618E-3,-7.827529E-3,-3.162132E-2],"categories":[],"categories_nodes":[],"categories_segments":[],"categories_sizes":[],"default_left":[0,0,0,0,0,0,0],"id":85,"left_children":[1,3,5,-1,-1,-1,-1],"loss_changes":[4.0474118E2,9.632225E1,6.0345825E1,0E0,0E0,0E0,0E0],"parents":[2147483647,0,0,1,1,2,2],"right_children":[2,4,6,-1,-1,-1,-1],"split_conditions":[8.8752633E-1,-3.7523808E0,9.3E-1,2.7426865E-2,5.4204618E-3,-7.827529E-3,-3.162132E-2],"split_indices":[5,5,6,0,0,0,0],"split_type":[0,0,0,0,0,0,0],"sum_hessian":[1.71E2,1.2E2,5.1E1,2.2E1,9.8E1,2.5E1,2.6E1],"tree_param":{"num_deleted":"0","num_feature":"11","num_nodes":"7","size_leaf_vector":"1"}},{"base_weights":[1.5021878E-1,1.6776005E0,-1.2843887E0,2.9260198E-2,9.683309E-3,-2.587808E-2,-1.4212802E-3],"categories":[],"categories_nodes":[],"categories_segments":[],"categories_sizes":[],"default_left":[0,0,0,0,0,0,0],"id":86,"left_children":[1,3,5,-1,-1,-1,-1],"loss_changes":[3.617576E2,5.2776123E1,1.2198282E2,0E0,0E0,0E0,0E0],"parents":[2147483647,0,0,1,1,2,2],"right_children":[2,4,6,-1,-1,-1,-1],"split_conditions":[-4.6327272E-1,-3.4409273E0,3.9445393E0,2.9260198E-2,9.683309E-3,-2.587808E-2,-1.4212802E-3],"split_indices":[5,5,2,0,0,0,0],"split_type":[0,0,0,0,0,0,0],"sum_hessian":[1.55E2,7.5E1,8E1,2.1E1,5.4E1,3.4E1,4.6E1],"tree_param":{"num_deleted":"0","num_feature":"11","num_nodes":"7","size_leaf_vector":"1"}},{"base_weights":[2.8079068E-3,9.8975044E-1,-1.2248644E0,2.1457348E-2,3.5402167E-3,-2.1812825E-2,-4.768919E-3],"categories":[],"categories_nodes":[],"categories_segments":[],"categories_sizes":[],"default_left":[0,0,0,0,0,0,0],"id":87,"left_children":[1,3,5,-1,-1,-1,-1],"loss_changes":[2.2392198E2,6.9395996E1,5.080134E1,0E0,0E0,0E0,0E0],"parents":[2147483647,0,0,1,1,2,2],"right_children":[2,4,6,-1,-1,-1,-1],"split_conditions":[-2.5238095E-2,-2.9109523E0,3.969824E0,2.1457348E-2,3.5402167E-3,-2.1812825E-2,-4.768919E-3],"split_indices":[5,5,8,0,0,0,0],"split_type":[0,0,0,0,0,0,0],"sum_hessian":[1.75E2,9.8E1,7.7E1,3E1,6.8E1,2.9E1,4.8E1],"tree_param":{"num_deleted":"0","num_feature":"11","num_nodes":"7","size_leaf_vector":"1"}},{"base_weights":[1.3797306E-1,1.0283405E0,-1.6525964E0,2.3752362E-2,6.261779E-3,-2.520562E-2,-6.1430363E-3],"categories":[],"categories_nodes":[],"categories_segments":[],"categories_sizes":[],"default_left":[0,0,0,0,0,0,0],"id":88,"left_children":[1,3,5,-1,-1,-1,-1],"loss_changes":[2.8368066E2,5.402083E1,4.229413E1,0E0,0E0,0E0,0E0],"parents":[2147483647,0,0,1,1,2,2],"right_children":[2,4,6,-1,-1,-1,-1],"split_conditions":[8.8752633E-1,-3.931381E0,4.1883388E0,2.3752362E-2,6.261779E-3,-2.520562E-2,-6.1430363E-3],"split_indices":[5,5,2,0,0,0,0],"split_type":[0,0,0,0,0,0,0],"sum_hessian":[1.68E2,1.14E2,5.4E1,2E1,9.4E1,2.5E1,2.9E1],"tree_param":{"num_deleted":"0","num_feature":"11","num_nodes":"7","size_leaf_vector":"1"}},{"base_weights":[2.2939492E-2,4.8012137E-1,-2.3456473E-2,-2.431889E-3,9.366214E-3],"categories":[],"categories_nodes":[],"categories_segments":[],"categories_sizes":[],"default_left":[0,0,0,0,0],"id":89,"left_children":[1,3,-1,-1,-1],"loss_changes":[1.878542E2,5.0370422E1,0E0,0E0,0E0],"parents":[2147483647,0,0,1,1],"right_children":[2,4,-1,-1,-1],"split_conditions":[2.110327E0,8.9E-1,-2.3456473E-2,-2.431889E-3,9.366214E-3],"split_indices":[4,10,0,0,0],"split_type":[0,0,0,0,0],"sum_hessian":[1.65E2,1.42E2,2.3E1,5.5E1,8.7E1],"tree_param":{"num_deleted":"0","num_feature":"11","num_nodes":"5","size_leaf_vector":"1"}},{"base_weights":[-2.209241E-1,7.5584805E-1,-2.2357986E0,1.9261345E-2,6.070029E-4,-8.893876E-3,-3.7794076E-2],"categories":[],"categories_nodes":[],"categories_segments":[],"categories_sizes":[],"default_left":[0,0,0,0,0,0,0],"id":90,"left_children":[1,3,5,-1,-1,-1,-1],"loss_changes":[3.7402313E2,1.01559395E2,1.0738095E2,0E0,0E0,0E0,0E0],"parents":[2147483647,0,0,1,1,2,2],"right_children":[2,4,6,-1,-1,-1,-1],"split_conditions":[7.9788095E-1,-2.0989826E0,9.6E-1,1.9261345E-2,6.070029E-4,-8.893876E-3,-3.7794076E-2],"split_indices":[5,5,6,0,0,0,0],"split_type":[0,0,0,0,0,0,0],"sum_hessian":[1.8E2,1.23E2,5.7E1,4.2E1,8.1E1,3.5E1,2.2E1],"tree_param":{"num_deleted":"0","num_feature":"11","num_nodes":"7","size_leaf_vector":"1"}},{"base_weights":[3.326169E-2,1.3681145E0,-1.9859536E0,2.2774154E-2,5.920454E-3,-7.912471E-3,-2.5129918E-2],"categories":[],"categories_nodes":[],"categories_segments":[],"categories_sizes":[],"default_left":[0,0,0,0,0,0,0],"id":91,"left_children":[1,3,5,-1,-1,-1,-1],"loss_changes":[4.6848227E2,6.4485306E1,3.0200043E1,0E0,0E0,0E0,0E0],"parents":[2147483647,0,0,1,1,2,2],"right_children":[2,4,6,-1,-1,-1,-1],"split_conditions":[1.5965368E-1,-1.7290527E0,8E-1,2.2774154E-2,5.920454E-3,-7.912471E-3,-2.5129918E-2],"split_indices":[5,5,6,0,0,0,0],"split_type":[0,0,0,0,0,0,0],"sum_hessian":[1.64E2,1E2,6.4E1,4.1E1,5.9E1,2.4E1,4E1],"tree_param":{"num_deleted":"0","num_feature":"11","num_nodes":"7","size_leaf_vector":"1"}},{"base_weights":[-2.4209496E-1,-9.0458864E-1,8.511601E-2,-0E0,-1.9655937E-2,4.7524865E-3,-6.5152883E-3],"categories":[],"categories_nodes":[],"categories_segments":[],"categories_sizes":[],"default_left":[0,0,0,0,0,0,0],"id":92,"left_children":[1,3,5,-1,-1,-1,-1],"loss_changes":[3.6322025E1,5.1583534E1,3.3559505E1,0E0,0E0,0E0,0E0],"parents":[2147483647,0,0,1,1,2,2],"right_children":[2,4,6,-1,-1,-1,-1],"split_conditions":[2.14E-1,1.02E0,2E-2,-0E0,-1.9655937E-2,4.7524865E-3,-6.5152883E-3],"split_indices":[0,6,1,0,0,0,0],"split_type":[0,0,0,0,0,0,0],"sum_hessian":[1.57E2,5E1,1.07E2,3E1,2E1,7.2E1,3.5E1],"tree_param":{"num_deleted":"0","num_feature":"11","num_nodes":"7","size_leaf_vector":"1"}},{"base_weights":[1.4752969E-1,1.9949242E0,-1.4808893E0,3.1495348E-2,1.1391712E-2,-6.3655977E-3,-3.321709E-2],"categories":[],"categories_nodes":[],"categories_segments":[],"categories_sizes":[],"default_left":[0,0,0,0,0,0,0],"id":93,"left_children":[1,3,5,-1,-1,-1,-1],"loss_changes":[5.327185E2,5.9781097E1,1.3156972E2,0E0,0E0,0E0,0E0],"parents":[2147483647,0,0,1,1,2,2],"right_children":[2,4,6,-1,-1,-1,-1],"split_conditions":[-3.6019048E-1,-2.9430218E0,3.7727706E0,3.1495348E-2,1.1391712E-2,-6.3655977E-3,-3.321709E-2],"split_indices":[5,5,5,0,0,0,0],"split_type":[0,0,0,0,0,0,0],"sum_hessian":[1.67E2,7.8E1,8.9E1,2.7E1,5.1E1,6.6E1,2.3E1],"tree_param":{"num_deleted":"0","num_feature":"11","num_nodes":"7","size_leaf_vector":"1"}},{"base_weights":[-2.1039328E-1,3.4933776E-1,-3.857761E-2,2.5410477E-2,-3.9049936E-4],"categories":[],"categories_nodes":[],"categories_segments":[],"categories_sizes":[],"default_left":[0,0,0,0,0],"id":94,"left_children":[1,3,-1,-1,-1],"loss_changes":[3.8384943E2,1.4174913E2,0E0,0E0,0E0],"parents":[2147483647,0,0,1,1],"right_children":[2,4,-1,-1,-1],"split_conditions":[3.807143E0,-4.1430736E0,-3.857761E-2,2.5410477E-2,-3.9049936E-4],"split_indices":[5,5,0,0,0],"split_type":[0,0,0,0,0],"sum_hessian":[1.78E2,1.58E2,2E1,2E1,1.38E2],"tree_param":{"num_deleted":"0","num_feature":"11","num_nodes":"5","size_leaf_vector":"1"}},{"base_weights":[-1.0296815E-1,2.9186726E-1,-2.5861476E-2,-7.980417E-4,1.0845049E-2],"categories":[],"categories_nodes":[],"categories_segments":[],"categories_sizes":[],"default_left":[0,0,0,0,0],"id":95,"left_children":[1,3,-1,-1,-1],"loss_changes":[1.7862703E2,4.739516E1,0E0,0E0,0E0],"parents":[2147483647,0,0,1,1],"right_children":[2,4,-1,-1,-1],"split_conditions":[2E-1,7.15E-1,-2.5861476E-2,-7.980417E-4,1.0845049E-2],"split_indices":[3,0,0,0,0],"split_type":[0,0,0,0,0],"sum_hessian":[1.71E2,1.51E2,2E1,1.05E2,4.6E1],"tree_param":{"num_deleted":"0","num_feature":"11","num_nodes":"5","size_leaf_vector":"1"}},{"base_weights":[-5.3402673E-2,4.9335432E-1,-3.4070045E-2,2.5507623E-2,7.7430264E-4],"categories":[],"categories_nodes":[],"categories_segments":[],"categories_sizes":[],"default_left":[0,0,0,0,0],"id":96,"left_children":[1,3,-1,-1,-1],"loss_changes":[3.266981E2,1.2645456E2,0E0,0E0,0E0],"parents":[2147483647,0,0,1,1],"right_children":[2,4,-1,-1,-1],"split_conditions":[2.8272274E0,-3.4409273E0,-3.4070045E-2,2.5507623E-2,7.7430264E-4],"split_indices":[5,5,0,0,0],"split_type":[0,0,0,0,0],"sum_hessian":[1.67E2,1.47E2,2E1,2E1,1.27E2],"tree_param":{"num_deleted":"0","num_feature":"11","num_nodes":"5","size_leaf_vector":"1"}},{"base_weights":[5.5303793E-2,3.1805074E-1,-1.137292E-2,-6.0368455E-3,5.0210473E-3],"categories":[],"categories_nodes":[],"categories_segments":[],"categories_sizes":[],"default_left":[0,0,0,0,0],"id":97,"left_children":[1,3,-1,-1,-1],"loss_changes":[5.5825752E1,2.6522055E1,0E0,0E0,0E0],"parents":[2147483647,0,0,1,1],"right_children":[2,4,-1,-1,-1],"split_conditions":[1.3E-1,-8E-2,-1.137292E-2,-6.0368455E-3,5.0210473E-3],"split_indices":[1,1,0,0,0],"split_type":[0,0,0,0,0],"sum_hessian":[1.7E2,1.43E2,2.7E1,2.1E1,1.22E2],"tree_param":{"num_deleted":"0","num_feature":"11","num_nodes":"5","size_leaf_vector":"1"}},{"base_weights":[2.0685019E-1,9.7508943E-1,-2.4626717E-2,1.8084822E-2,2.8885868E-3],"categories":[],"categories_nodes":[],"categories_segments":[],"categories_sizes":[],"default_left":[0,0,0,0,0],"id":98,"left_children":[1,3,-1,-1,-1],"loss_changes":[3.4890625E2,7.0781456E1,0E0,0E0,0E0],"parents":[2147483647,0,0,1,1],"right_children":[2,4,-1,-1,-1],"split_conditions":[1.4174162E0,3.94E-1,-2.4626717E-2,1.8084822E-2,2.8885868E-3],"split_indices":[5,0,0,0,0],"split_type":[0,0,0,0,0],"sum_hessian":[1.6E2,1.27E2,3.3E1,5.3E1,7.4E1],"tree_param":{"num_deleted":"0","num_feature":"11","num_nodes":"5","size_leaf_vector":"1"}},{"base_weights":[1.6173281E-1,3.682492E-1,-1.1936219E-2,-6.016042E-3,5.870468E-3],"categories":[],"categories_nodes":[],"categories_segments":[],"categories_sizes":[],"default_left":[0,0,0,0,0],"id":99,"left_children":[1,3,-1,-1,-1],"loss_changes":[5.315443E1,3.676455E1,0E0,0E0,0E0],"parents":[2147483647,0,0,1,1],"right_children":[2,4,-1,-1,-1],"split_conditions":[2.0202365E0,-1E-2,-1.1936219E-2,-6.016042E-3,5.870468E-3],"split_indices":[4,1,0,0,0],"split_type":[0,0,0,0,0],"sum_hessian":[1.8E2,1.6E2,2E1,2.7E1,1.33E2],"tree_param":{"num_deleted":"0","num_feature":"11","num_nodes":"5","size_leaf_vector":"1"}},{"base_weights":[-1.1967148E-1,5.156311E-1,-4.023789E-2,2.6410418E-2,-3.6680797E-4],"categories":[],"categories_nodes":[],"categories_segments":[],"categories_sizes":[],"default_left":[0,0,0,0,0],"id":100,"left_children":[1,3,-1,-1,-1],"loss_changes":[4.4297324E2,1.8269382E2,0E0,0E0,0E0],"parents":[2147483647,0,0,1,1],"right_children":[2,4,-1,-1,-1],"split_conditions":[3.1788182E0,-2.7638094E0,-4.023789E-2,2.6410418E-2,-3.6680797E-4],"split_indices":[5,5,0,0,0],"split_type":[0,0,0,0,0],"sum_hessian":[1.68E2,1.48E2,2E1,2.7E1,1.21E2],"tree_param":{"num_deleted":"0","num_feature":"11","num_nodes":"5","size_leaf_vector":"1"}},{"base_weights":[3.31701E-1,2.4604358E-2,-4.6998686E-1,2.2668089E-3,-1.6011013E-2],"categories":[],"categories_nodes":[],"categories_segments":[],"categories_sizes":[],"default_left":[0,0,0,0,0],"id":101,"left_children":[1,-1,3,-1,-1],"loss_changes":[2.6887918E2,0E0,9.381037E1,0E0,0E0],"parents":[2147483647,0,0,2,2],"right_children":[2,-1,4,-1,-1],"split_conditions":[-2.22829E0,2.4604358E-2,9.1545457E-1,2.2668089E-3,-1.6011013E-2],"split_indices":[5,0,5,0,0],"split_type":[0,0,0,0,0],"sum_hessian":[1.48E2,3.8E1,1.1E2,7E1,4E1],"tree_param":{"num_deleted":"0","num_feature":"11","num_nodes":"5","size_leaf_vector":"1"}},{"base_weights":[-7.120293E-2,7.2701675E-1,-2.5333874E0,1.4988757E-2,-1.3896363E-3,-1.4285935E-2,-3.0915035E-2],"categories":[],"categories_nodes":[],"categories_segments":[],"categories_sizes":[],"default_left":[0,0,0,0,0,0,0],"id":102,"left_children":[1,3,5,-1,-1,-1,-1],"loss_changes":[3.6085025E2,9.46426E1,1.1445312E0,0E0,0E0,0E0,0E0],"parents":[2147483647,0,0,1,1,2,2],"right_children":[2,4,6,-1,-1,-1,-1],"split_conditions":[1.332684E0,-8.19329E-1,2.8540692E0,1.4988757E-2,-1.3896363E-3,-1.4285935E-2,-3.0915035E-2],"split_indices":[5,5,5,0,0,0,0],"split_type":[0,0,0,0,0,0,0],"sum_hessian":[1.73E2,1.33E2,4E1,6.9E1,6.4E1,2E1,2E1],"tree_param":{"num_deleted":"0","num_feature":"11","num_nodes":"7","size_leaf_vector":"1"}},{"base_weights":[1.5913803E-2,1.051038E0,-2.2492678E0,2.3505112E-2,6.9883773E-3,-6.580308E-3,-3.2178257E-2],"categories":[],"categories_nodes":[],"categories_segments":[],"categories_sizes":[],"default_left":[0,0,0,0,0,0,0],"id":103,"left_children":[1,3,5,-1,-1,-1,-1],"loss_changes":[4.4205502E2,4.8235245E1,7.646814E1,0E0,0E0,0E0,0E0],"parents":[2147483647,0,0,1,1,2,2],"right_children":[2,4,6,-1,-1,-1,-1],"split_conditions":[9.1545457E-1,-3.6261039E0,9.3E-1,2.3505112E-2,6.9883773E-3,-6.580308E-3,-3.2178257E-2],"split_indices":[5,5,6,0,0,0,0],"split_type":[0,0,0,0,0,0,0],"sum_hessian":[1.79E2,1.25E2,5.4E1,2E1,1.05E2,2.4E1,3E1],"tree_param":{"num_deleted":"0","num_feature":"11","num_nodes":"7","size_leaf_vector":"1"}},{"base_weights":[-5.285417E-2,9.728826E-1,-2.3551848E0,2.9230628E-3,1.506359E-2,-1.0827732E-2,-3.472835E-2],"categories":[],"categories_nodes":[],"categories_segments":[],"categories_sizes":[],"default_left":[0,0,0,0,0,0,0],"id":104,"left_children":[1,3,5,-1,-1,-1,-1],"loss_changes":[3.977773E2,3.811602E1,5.059268E1,0E0,0E0,0E0,0E0],"parents":[2147483647,0,0,1,1,2,2],"right_children":[2,4,6,-1,-1,-1,-1],"split_conditions":[9.1545457E-1,4.06E-1,3.1788182E0,2.9230628E-3,1.506359E-2,-1.0827732E-2,-3.472835E-2],"split_indices":[5,7,5,0,0,0,0],"split_type":[0,0,0,0,0,0,0],"sum_hessian":[1.58E2,1.11E2,4.7E1,5.3E1,5.8E1,2.7E1,2E1],"tree_param":{"num_deleted":"0","num_feature":"11","num_nodes":"7","size_leaf_vector":"1"}},{"base_weights":[1.5455812E-1,4.022917E-1,-1.2224997E-2,-3.0973663E-3,1.04909E-2],"categories":[],"categories_nodes":[],"categories_segments":[],"categories_sizes":[],"default_left":[0,0,0,0,0],"id":105,"left_children":[1,3,-1,-1,-1],"loss_changes":[6.0656616E1,7.190542E1,0E0,0E0,0E0],"parents":[2147483647,0,0,1,1],"right_children":[2,4,-1,-1,-1],"split_conditions":[2E-1,9.2E-1,-1.2224997E-2,-3.0973663E-3,1.04909E-2],"split_indices":[3,10,0,0,0],"split_type":[0,0,0,0,0],"sum_hessian":[1.68E2,1.46E2,2.2E1,7E1,7.6E1],"tree_param":{"num_deleted":"0","num_feature":"11","num_nodes":"5","size_leaf_vector":"1"}},{"base_weights":[-1.9309334E-1,3.3372113E-1,-2.5921984E-2,8.196401E-3,-4.4902987E-3],"categories":[],"categories_nodes":[],"categories_segments":[],"categories_sizes":[],"default_left":[0,0,0,0,0],"id":106,"left_children":[1,3,-1,-1,-1],"loss_changes":[2.037496E2,5.2417496E1,0E0,0E0,0E0],"parents":[2147483647,0,0,1,1],"right_children":[2,4,-1,-1,-1],"split_conditions":[1.6419042E0,4.694673E0,-2.5921984E-2,8.196401E-3,-4.4902987E-3],"split_indices":[4,8,0,0,0],"split_type":[0,0,0,0,0],"sum_hessian":[1.51E2,1.27E2,2.4E1,7.9E1,4.8E1],"tree_param":{"num_deleted":"0","num_feature":"11","num_nodes":"5","size_leaf_vector":"1"}},{"base_weights":[-2.4117783E-2,4.2011154E-1,-1.14306E0,-5.7546673E-3,6.4959745E-3,-1.5909195E-2,-5.8331657E-3],"categories":[],"categories_nodes":[],"categories_segments":[],"categories_sizes":[],"default_left":[0,0,0,0,0,0,0],"id":107,"left_children":[1,3,5,-1,-1,-1,-1],"loss_changes":[9.060779E1,3.1416027E1,6.221405E0,0E0,0E0,0E0,0E0],"parents":[2147483647,0,0,1,1,2,2],"right_children":[2,4,6,-1,-1,-1,-1],"split_conditions":[2E-2,-9E-2,4.81139E0,-5.7546673E-3,6.4959745E-3,-1.5909195E-2,-5.8331657E-3],"split_indices":[1,1,2,0,0,0,0],"split_type":[0,0,0,0,0,0,0],"sum_hessian":[1.71E2,1.24E2,4.7E1,2.1E1,1.03E2,2E1,2.7E1],"tree_param":{"num_deleted":"0","num_feature":"11","num_nodes":"7","size_leaf_vector":"1"}},{"base_weights":[3.1814348E-2,6.271375E-1,-3.6017388E-2,2.1794925E-2,-1.9155645E-3],"categories":[],"categories_nodes":[],"categories_segments":[],"categories_sizes":[],"default_left":[0,0,0,0,0],"id":108,"left_children":[1,3,-1,-1,-1],"loss_changes":[3.8470538E2,1.9979456E2,0E0,0E0,0E0],"parents":[2147483647,0,0,1,1],"right_children":[2,4,-1,-1,-1],"split_conditions":[3.7727706E0,-1.647E0,-3.6017388E-2,2.1794925E-2,-1.9155645E-3],"split_indices":[5,5,0,0,0],"split_type":[0,0,0,0,0],"sum_hessian":[1.69E2,1.49E2,2E1,4.9E1,1E2],"tree_param":{"num_deleted":"0","num_feature":"11","num_nodes":"5","size_leaf_vector":"1"}},{"base_weights":[-3.2309377E-1,5.756978E-1,-8.443516E-1,1.0038088E-2,5.86965E-4,-0E0,-1.5834881E-2],"categories":[],"categories_nodes":[],"categories_segments":[],"categories_sizes":[],"default_left":[0,0,0,0,0,0,0],"id":109,"left_children":[1,3,5,-1,-1,-1,-1],"loss_changes":[7.765945E1,1.2144262E1,6.3764244E1,0E0,0E0,0E0,0E0],"parents":[2147483647,0,0,1,1,2,2],"right_children":[2,4,6,-1,-1,-1,-1],"split_conditions":[-2.8641167E-1,5.95E-1,0E0,1.0038088E-2,5.86965E-4,-0E0,-1.5834881E-2],"split_indices":[4,0,3,0,0,0,0],"split_type":[0,0,0,0,0,0,0],"sum_hessian":[1.55E2,5.6E1,9.9E1,2.7E1,2.9E1,4.9E1,5E1],"tree_param":{"num_deleted":"0","num_feature":"11","num_nodes":"7","size_leaf_vector":"1"}},{"base_weights":[5.087271E-2,-8.2610273E-1,4.3352336E-1,4.644366E-4,-1.5942985E-2,1.1121646E-2,-1.7553824E-3],"categories":[],"categories_nodes":[],"categories_segments":[],"categories_sizes":[],"default_left":[0,0,0,0,0,0,0],"id":110,"left_children":[1,3,5,-1,-1,-1,-1],"loss_changes":[6.113048E1,3.8783848E1,5.4819565E1,0E0,0E0,0E0,0E0],"parents":[2147483647,0,0,1,1,2,2],"right_children":[2,4,6,-1,-1,-1,-1],"split_conditions":[3.3553715E0,2.7781637E0,4.6990275E0,4.644366E-4,-1.5942985E-2,1.1121646E-2,-1.7553824E-3],"split_indices":[2,8,8,0,0,0,0],"split_type":[0,0,0,0,0,0,0],"sum_hessian":[1.73E2,5E1,1.23E2,2.5E1,2.5E1,5.7E1,6.6E1],"tree_param":{"num_deleted":"0","num_feature":"11","num_nodes":"7","size_leaf_vector":"1"}},{"base_weights":[-1.5204167E-2,1.0117301E-2,-3.5934272E-1,-1.4361149E-2,8.179983E-4],"categories":[],"categories_nodes":[],"categories_segments":[],"categories_sizes":[],"default_left":[0,0,0,0,0],"id":111,"left_children":[1,-1,3,-1,-1],"loss_changes":[6.0891293E1,0E0,6.4168E1,0E0,0E0],"parents":[2147483647,0,0,2,2],"right_children":[2,-1,4,-1,-1],"split_conditions":[1.84E-1,1.0117301E-2,3.761262E0,-1.4361149E-2,8.179983E-4],"split_indices":[7,0,2,0,0],"split_type":[0,0,0,0,0],"sum_hessian":[1.64E2,3.8E1,1.26E2,3.4E1,9.2E1],"tree_param":{"num_deleted":"0","num_feature":"11","num_nodes":"5","size_leaf_vector":"1"}},{"base_weights":[2.119651E-1,9.9743265E-1,-1.7929995E0,1.7566644E-2,1.9416745E-3,-2.2911376E-3,-3.208507E-2],"categories":[],"categories_nodes":[],"categories_segments":[],"categories_sizes":[],"default_left":[0,0,0,0,0,0,0],"id":112,"left_children":[1,3,5,-1,-1,-1,-1],"loss_changes":[2.7429343E2,7.25768E1,1.0135774E2,0E0,0E0,0E0,0E0],"parents":[2147483647,0,0,1,1,2,2],"right_children":[2,4,6,-1,-1,-1,-1],"split_conditions":[7.549351E-1,-1.5069925E0,9.1E-1,1.7566644E-2,1.9416745E-3,-2.2911376E-3,-3.208507E-2],"split_indices":[5,5,6,0,0,0,0],"split_type":[0,0,0,0,0,0,0],"sum_hessian":[1.64E2,1.2E2,4.4E1,5.8E1,6.2E1,2.4E1,2E1],"tree_param":{"num_deleted":"0","num_feature":"11","num_nodes":"7","size_leaf_vector":"1"}},{"base_weights":[1.29258E-2,5.85428E-1,-3.3388723E-2,1.6989866E-2,8.508284E-4],"categories":[],"categories_nodes":[],"categories_segments":[],"categories_sizes":[],"default_left":[0,0,0,0,0],"id":113,"left_children":[1,3,-1,-1,-1],"loss_changes":[3.2939713E2,7.995338E1,0E0,0E0,0E0],"parents":[2147483647,0,0,1,1],"right_children":[2,4,-1,-1,-1],"split_conditions":[3.1788182E0,-2.0989826E0,-3.3388723E-2,1.6989866E-2,8.508284E-4],"split_indices":[5,5,0,0,0],"split_type":[0,0,0,0,0],"sum_hessian":[1.63E2,1.43E2,2E1,4E1,1.03E2],"tree_param":{"num_deleted":"0","num_feature":"11","num_nodes":"5","size_leaf_vector":"1"}},{"base_weights":[2.3826107E-2,1.1893699E0,-1.2387692E0,1.6852794E-2,2.35592E-3,-2.6923938E-2,-5.8900104E-3],"categories":[],"categories_nodes":[],"categories_segments":[],"categories_sizes":[],"default_left":[0,0,0,0,0,0,0],"id":114,"left_children":[1,3,5,-1,-1,-1,-1],"loss_changes":[2.6779233E2,4.102777E1,7.096263E1,0E0,0E0,0E0,0E0],"parents":[2147483647,0,0,1,1,2,2],"right_children":[2,4,6,-1,-1,-1,-1],"split_conditions":[-2.5238095E-2,5.13E-1,3.3553715E0,1.6852794E-2,2.35592E-3,-2.6923938E-2,-5.8900104E-3],"split_indices":[5,0,2,0,0,0,0],"split_type":[0,0,0,0,0,0,0],"sum_hessian":[1.72E2,9E1,8.2E1,5.6E1,3.4E1,2E1,6.2E1],"tree_param":{"num_deleted":"0","num_feature":"11","num_nodes":"7","size_leaf_vector":"1"}},{"base_weights":[-1.3601533E-1,3.9201206E-1,-3.2747343E-2,1.5453407E-2,-3.0277746E-3],"categories":[],"categories_nodes":[],"categories_segments":[],"categories_sizes":[],"default_left":[0,0,0,0,0],"id":115,"left_children":[1,3,-1,-1,-1],"loss_changes":[2.877328E2,1.2217749E2,0E0,0E0,0E0],"parents":[2147483647,0,0,1,1],"right_children":[2,4,-1,-1,-1],"split_conditions":[4.1651907E0,-1.0914832E0,-3.2747343E-2,1.5453407E-2,-3.0277746E-3],"split_indices":[5,5,0,0,0],"split_type":[0,0,0,0,0],"sum_hessian":[1.63E2,1.43E2,2E1,5.2E1,9.1E1],"tree_param":{"num_deleted":"0","num_feature":"11","num_nodes":"5","size_leaf_vector":"1"}},{"base_weights":[-5.931597E-2,9.7322583E-1,-1.9835888E0,1.5813243E-2,5.932929E-4,-3.417269E-2,-8.431021E-3],"categories":[],"categories_nodes":[],"categories_segments":[],"categories_sizes":[],"default_left":[0,0,0,0,0,0,0],"id":116,"left_children":[1,3,5,-1,-1,-1,-1],"loss_changes":[3.4644754E2,6.0688774E1,8.1074814E1,0E0,0E0,0E0,0E0],"parents":[2147483647,0,0,1,1,2,2],"right_children":[2,4,6,-1,-1,-1,-1],"split_conditions":[8.8752633E-1,-7.589348E-1,3.5219762E0,1.5813243E-2,5.932929E-4,-3.417269E-2,-8.431021E-3],"split_indices":[5,5,2,0,0,0,0],"split_type":[0,0,0,0,0,0,0],"sum_hessian":[1.64E2,1.08E2,5.6E1,6.2E1,4.6E1,2E1,3.6E1],"tree_param":{"num_deleted":"0","num_feature":"11","num_nodes":"7","size_leaf_vector":"1"}},{"base_weights":[-1.3010609E-1,7.385831E-1,-1.8310877E0,1.0474901E-2,-2.1357648E-3,-2.6670244E-2,-3.0405323E-3],"categories":[],"categories_nodes":[],"categories_segments":[],"categories_sizes":[],"default_left":[0,0,0,0,0,0,0],"id":117,"left_children":[1,3,5,-1,-1,-1,-1],"loss_changes":[2.708717E2,3.75421E1,7.211757E1,0E0,0E0,0E0,0E0],"parents":[2147483647,0,0,1,1,2,2],"right_children":[2,4,6,-1,-1,-1,-1],"split_conditions":[8.8752633E-1,3.547619E-2,4.5747147E0,1.0474901E-2,-2.1357648E-3,-2.6670244E-2,-3.0405323E-3],"split_indices":[5,5,2,0,0,0,0],"split_type":[0,0,0,0,0,0,0],"sum_hessian":[1.73E2,1.16E2,5.7E1,8.8E1,2.8E1,3.4E1,2.3E1],"tree_param":{"num_deleted":"0","num_feature":"11","num_nodes":"7","size_leaf_vector":"1"}},{"base_weights":[-1.8581218E-1,2.6701367E-1,-1.0089567E0,5.582097E-3,-7.329397E-3,-1.8542591E-2,-3.014982E-3],"categories":[],"categories_nodes":[],"categories_segments":[],"categories_sizes":[],"default_left":[0,0,0,0,0,0,0],"id":118,"left_children":[1,3,5,-1,-1,-1,-1],"loss_changes":[6.843689E1,3.6230473E1,3.392002E1,0E0,0E0,0E0,0E0],"parents":[2147483647,0,0,1,1,2,2],"right_children":[2,4,6,-1,-1,-1,-1],"split_conditions":[1.08E0,1.3E-1,0E0,5.582097E-3,-7.329397E-3,-1.8542591E-2,-3.014982E-3],"split_indices":[6,1,1,0,0,0,0],"split_type":[0,0,0,0,0,0,0],"sum_hessian":[1.73E2,1.13E2,6E1,9E1,2.3E1,2.3E1,3.7E1],"tree_param":{"num_deleted":"0","num_feature":"11","num_nodes":"7","size_leaf_vector":"1"}},{"base_weights":[-1.839091E-1,3.466549E-1,-3.4129564E-2,1.7981302E-2,-1.5584328E-3],"categories":[],"categories_nodes":[],"categories_segments":[],"categories_sizes":[],"default_left":[0,0,0,0,0],"id":119,"left_children":[1,3,-1,-1,-1],"loss_changes":[3.036551E2,1.1390671E2,0E0,0E0,0E0],"parents":[2147483647,0,0,1,1],"right_children":[2,4,-1,-1,-1],"split_conditions":[3.1788182E0,-2.22829E0,-3.4129564E-2,1.7981302E-2,-1.5584328E-3],"split_indices":[5,5,0,0,0],"split_type":[0,0,0,0,0],"sum_hessian":[1.67E2,1.47E2,2E1,3.5E1,1.12E2],"tree_param":{"num_deleted":"0","num_feature":"11","num_nodes":"5","size_leaf_vector":"1"}},{"base_weights":[6.889805E-2,9.2226195E-1,-2.007595E0,1.7733201E-2,3.906833E-3,-3.0173754E-2,-6.757284E-3],"categories":[],"categories_nodes":[],"categories_segments":[],"categories_sizes":[],"default_left":[0,0,0,0,0,0,0],"id":120,"left_children":[1,3,5,-1,-1,-1,-1],"loss_changes":[2.98781E2,4.86605E1,5.201201E1,0E0,0E0,0E0,0E0],"parents":[2147483647,0,0,1,1,2,2],"right_children":[2,4,6,-1,-1,-1,-1],"split_conditions":[8.8752633E-1,-2.0989826E0,4.1883388E0,1.7733201E-2,3.906833E-3,-3.0173754E-2,-6.757284E-3],"split_indices":[5,5,2,0,0,0,0],"split_type":[0,0,0,0,0,0,0],"sum_hessian":[1.59E2,1.15E2,4.4E1,3.9E1,7.6E1,2.1E1,2.3E1],"tree_param":{"num_deleted":"0","num_feature":"11","num_nodes":"7","size_leaf_vector":"1"}},{"base_weights":[3.1089269E-2,7.9106706E-1,-1.8448446E0,2.1671783E-2,3.1963347E-3,-2.7945556E-2,-6.8095415E-3],"categories":[],"categories_nodes":[],"categories_segments":[],"categories_sizes":[],"default_left":[0,0,0,0,0,0,0],"id":121,"left_children":[1,3,5,-1,-1,-1,-1],"loss_changes":[2.5288376E2,7.6440315E1,4.338301E1,0E0,0E0,0E0,0E0],"parents":[2147483647,0,0,1,1,2,2],"right_children":[2,4,6,-1,-1,-1,-1],"split_conditions":[1.332684E0,-2.9430218E0,4.1883388E0,2.1671783E-2,3.1963347E-3,-2.7945556E-2,-6.8095415E-3],"split_indices":[5,5,2,0,0,0,0],"split_type":[0,0,0,0,0,0,0],"sum_hessian":[1.68E2,1.22E2,4.6E1,2.6E1,9.6E1,2.1E1,2.5E1],"tree_param":{"num_deleted":"0","num_feature":"11","num_nodes":"7","size_leaf_vector":"1"}},{"base_weights":[9.51633E-2,3.7788066E-1,-7.539709E-3,5.026199E-5,1.5617008E-2],"categories":[],"categories_nodes":[],"categories_segments":[],"categories_sizes":[],"default_left":[0,0,0,0,0],"id":122,"left_children":[1,3,-1,-1,-1],"loss_changes":[4.0659187E1,5.489228E1,0E0,0E0,0E0],"parents":[2147483647,0,0,1,1],"right_children":[2,4,-1,-1,-1],"split_conditions":[1.18E0,1E0,-7.539709E-3,5.026199E-5,1.5617008E-2],"split_indices":[10,10,0,0,0],"split_type":[0,0,0,0,0],"sum_hessian":[1.6E2,1.23E2,3.7E1,9.8E1,2.5E1],"tree_param":{"num_deleted":"0","num_feature":"11","num_nodes":"5","size_leaf_vector":"1"}},{"base_weights":[-3.205671E-2,1.3645592E0,-1.3138592E0,2.1139123E-2,7.3624216E-3,-2.9562766E-2,-5.145012E-3],"categories":[],"categories_nodes":[],"categories_segments":[],"categories_sizes":[],"default_left":[0,0,0,0,0,0,0],"id":123,"left_children":[1,3,5,-1,-1,-1,-1],"loss_changes":[3.0787454E2,2.7976257E1,1.0708333E2,0E0,0E0,0E0,0E0],"parents":[2147483647,0,0,1,1,2,2],"right_children":[2,4,6,-1,-1,-1,-1],"split_conditions":[-4.5445135E-1,3.8019013E0,3.3056388E0,2.1139123E-2,7.3624216E-3,-2.9562766E-2,-5.145012E-3],"split_indices":[5,2,2,0,0,0,0],"split_type":[0,0,0,0,0,0,0],"sum_hessian":[1.62E2,7.7E1,8.5E1,2.9E1,4.8E1,2.3E1,6.2E1],"tree_param":{"num_deleted":"0","num_feature":"11","num_nodes":"7","size_leaf_vector":"1"}},{"base_weights":[-1.4654799E-1,-1.7440442E-2,1.4132784E-1,9.586343E-3,-1.8172334E-3],"categories":[],"categories_nodes":[],"categories_segments":[],"categories_sizes":[],"default_left":[0,0,0,0,0],"id":124,"left_children":[1,-1,3,-1,-1],"loss_changes":[8.7453156E1,0E0,4.389303E1,0E0,0E0],"parents":[2147483647,0,0,2,2],"right_children":[2,-1,4,-1,-1],"split_conditions":[-8E-2,-1.7440442E-2,-9.267385E-1,9.586343E-3,-1.8172334E-3],"split_indices":[1,0,4,0,0],"split_type":[0,0,0,0,0],"sum_hessian":[1.79E2,2.4E1,1.55E2,4.2E1,1.13E2],"tree_param":{"num_deleted":"0","num_feature":"11","num_nodes":"5","size_leaf_vector":"1"}},{"base_weights":[-8.682012E-2,8.241155E-1,-1.9655657E0,1.7106675E-2,3.2448652E-3,-2.9707829E-2,-5.786372E-3],"categories":[],"categories_nodes":[],"categories_segments":[],"categories_sizes":[],"default_left":[0,0,0,0,0,0,0],"id":125,"left_children":[1,3,5,-1,-1,-1,-1],"loss_changes":[3.0360434E2,4.790011E1,6.87171E1,0E0,0E0,0E0,0E0],"parents":[2147483647,0,0,1,1,2,2],"right_children":[2,4,6,-1,-1,-1,-1],"split_conditions":[7.9788095E-1,-1.647E0,5.92E-1,1.7106675E-2,3.2448652E-3,-2.9707829E-2,-5.786372E-3],"split_indices":[5,5,0,0,0,0,0],"split_type":[0,0,0,0,0,0,0],"sum_hessian":[1.67E2,1.14E2,5.3E1,3.6E1,7.8E1,2.7E1,2.6E1],"tree_param":{"num_deleted":"0","num_feature":"11","num_nodes":"7","size_leaf_vector":"1"}},{"base_weights":[-2.5023437E-1,5.104953E-1,-2.235736E0,1.8369189E-2,1.3755913E-3,-8.149461E-3,-3.10022E-2],"categories":[],"categories_nodes":[],"categories_segments":[],"categories_sizes":[],"default_left":[0,0,0,0,0,0,0],"id":126,"left_children":[1,3,5,-1,-1,-1,-1],"loss_changes":[2.5665283E2,5.7606678E1,4.1180008E1,0E0,0E0,0E0,0E0],"parents":[2147483647,0,0,1,1,2,2],"right_children":[2,4,6,-1,-1,-1,-1],"split_conditions":[1.268381E0,-3.4409273E0,9.3E-1,1.8369189E-2,1.3755913E-3,-8.149461E-3,-3.10022E-2],"split_indices":[5,5,6,0,0,0,0],"split_type":[0,0,0,0,0,0,0],"sum_hessian":[1.6E2,1.18E2,4.2E1,2.1E1,9.7E1,2E1,2.2E1],"tree_param":{"num_deleted":"0","num_feature":"11","num_nodes":"7","size_leaf_vector":"1"}},{"base_weights":[-8.111641E-2,4.0442806E-1,-3.095847E-2,8.391443E-3,-6.8568215E-3],"categories":[],"categories_nodes":[],"categories_segments":[],"categories_sizes":[],"default_left":[0,0,0,0,0],"id":127,"left_children":[1,3,-1,-1,-1],"loss_changes":[2.636504E2,7.600925E1,0E0,0E0,0E0],"parents":[2147483647,0,0,1,1],"right_children":[2,4,-1,-1,-1],"split_conditions":[2.9216883E0,1.4688095E-1,-3.095847E-2,8.391443E-3,-6.8568215E-3],"split_indices":[5,5,0,0,0],"split_type":[0,0,0,0,0],"sum_hessian":[1.69E2,1.49E2,2E1,1.08E2,4.1E1],"tree_param":{"num_deleted":"0","num_feature":"11","num_nodes":"5","size_leaf_vector":"1"}},{"base_weights":[1.03471175E-1,7.794E-1,-2.3862477E-2,1.97253E-2,2.1170708E-3],"categories":[],"categories_nodes":[],"categories_segments":[],"categories_sizes":[],"default_left":[0,0,0,0,0],"id":128,"left_children":[1,3,-1,-1,-1],"loss_changes":[2.9209787E2,8.852219E1,0E0,0E0,0E0],"parents":[2147483647,0,0,1,1],"right_children":[2,4,-1,-1,-1],"split_conditions":[1.4174162E0,-2.0989826E0,-2.3862477E-2,1.97253E-2,2.1170708E-3],"split_indices":[5,5,0,0,0],"split_type":[0,0,0,0,0],"sum_hessian":[1.64E2,1.32E2,3.2E1,3.8E1,9.4E1],"tree_param":{"num_deleted":"0","num_feature":"11","num_nodes":"5","size_leaf_vector":"1"}},{"base_weights":[8.316535E-2,6.894413E-1,-4.2326027E-1,1.4267513E-2,-1.0106873E-3,-1.571282E-2,-2.1134923E-5],"categories":[],"categories_nodes":[],"categories_segments":[],"categories_sizes":[],"default_left":[0,0,0,0,0,0,0],"id":129,"left_children":[1,3,5,-1,-1,-1,-1],"loss_changes":[5.8526474E1,5.2754715E1,4.8209023E1,0E0,0E0,0E0,0E0],"parents":[2147483647,0,0,1,1,2,2],"right_children":[2,4,6,-1,-1,-1,-1],"split_conditions":[0E0,4.5341525E0,-8E-2,1.4267513E-2,-1.0106873E-3,-1.571282E-2,-2.1134923E-5],"split_indices":[9,8,1,0,0,0,0],"split_type":[0,0,0,0,0,0,0],"sum_hessian":[1.8E2,8.2E1,9.8E1,4.1E1,4.1E1,2.2E1,7.6E1],"tree_param":{"num_deleted":"0","num_feature":"11","num_nodes":"7","size_leaf_vector":"1"}},{"base_weights":[-1.575428E-1,-6.4326775E-1,6.5363896E-1,5.1400587E-3,-1.025758E-2,1.3189412E-2,9.021422E-4],"categories":[],"categories_nodes":[],"categories_segments":[],"categories_sizes":[],"default_left":[0,0,0,0,0,0,0],"id":130,"left_children":[1,3,5,-1,-1,-1,-1],"loss_changes":[7.183194E1,5.360962E1,2.3485556E1,0E0,0E0,0E0,0E0],"parents":[2147483647,0,0,1,1,2,2],"right_children":[2,4,6,-1,-1,-1,-1],"split_conditions":[1E0,-1E-1,1.18E0,5.1400587E-3,-1.025758E-2,1.3189412E-2,9.021422E-4],"split_indices":[10,3,10,0,0,0,0],"split_type":[0,0,0,0,0,0,0],"sum_hessian":[1.72E2,1.09E2,6.3E1,2.6E1,8.3E1,2.5E1,3.8E1],"tree_param":{"num_deleted":"0","num_feature":"11","num_nodes":"7","size_leaf_vector":"1"}},{"base_weights":[1.0228107E-2,1.1077573E0,-1.1142405E0,-4.046566E-4,1.6189374E-2,-3.1662703E-2,-2.5047995E-3],"categories":[],"categories_nodes":[],"categories_segments":[],"categories_sizes":[],"default_left":[0,0,0,0,0,0,0],"id":131,"left_children":[1,3,5,-1,-1,-1,-1],"loss_changes":[2.1843663E2,5.4731415E1,1.4682208E2,0E0,0E0,0E0,0E0],"parents":[2147483647,0,0,1,1,2,2],"right_children":[2,4,6,-1,-1,-1,-1],"split_conditions":[-7.7973686E-2,8E-1,3.3553715E0,-4.046566E-4,1.6189374E-2,-3.1662703E-2,-2.5047995E-3],"split_indices":[5,10,2,0,0,0,0],"split_type":[0,0,0,0,0,0,0],"sum_hessian":[1.67E2,8.5E1,8.2E1,2.7E1,5.8E1,2E1,6.2E1],"tree_param":{"num_deleted":"0","num_feature":"11","num_nodes":"7","size_leaf_vector":"1"}},{"base_weights":[-2.1087706E-1,-2.3035571E-2,1.3595332E-1,6.0711205E-3,-1.1777789E-2],"categories":[],"categories_nodes":[],"categories_segments":[],"categories_sizes":[],"default_left":[0,0,0,0,0],"id":132,"left_children":[1,-1,3,-1,-1],"loss_changes":[1.2784614E2,0E0,9.646999E1,0E0,0E0],"parents":[2147483647,0,0,2,2],"right_children":[2,-1,4,-1,-1],"split_conditions":[-8E-2,-2.3035571E-2,7E-2,6.0711205E-3,-1.1777789E-2],"split_indices":[1,0,1,0,0],"split_type":[0,0,0,0,0],"sum_hessian":[1.66E2,2E1,1.46E2,1.1E2,3.6E1],"tree_param":{"num_deleted":"0","num_feature":"11","num_nodes":"5","size_leaf_vector":"1"}},{"base_weights":[-3.625896E-2,-1.0508803E0,4.451613E-1,-2.765846E-3,-1.7082421E-2,9.08111E-3,-0E0],"categories":[],"categories_nodes":[],"categories_segments":[],"categories_sizes":[],"default_left":[0,0,0,0,0,0,0],"id":133,"left_children":[1,3,5,-1,-1,-1,-1],"loss_changes":[8.012134E1,2.2629406E1,2.1908735E1,0E0,0E0,0E0,0E0],"parents":[2147483647,0,0,1,1,2,2],"right_children":[2,4,6,-1,-1,-1,-1],"split_conditions":[3.6332998E0,1.18E0,4.721357E0,-2.765846E-3,-1.7082421E-2,9.08111E-3,-0E0],"split_indices":[2,6,2,0,0,0,0],"split_type":[0,0,0,0,0,0,0],"sum_hessian":[1.53E2,4.8E1,1.05E2,2.6E1,2.2E1,4.8E1,5.7E1],"tree_param":{"num_deleted":"0","num_feature":"11","num_nodes":"7","size_leaf_vector":"1"}},{"base_weights":[-2.4819699E-1,4.8439878E-1,-1.7589716E0,7.4225003E-3,-7.130004E-4,-8.09021E-3,-2.8491E-2],"categories":[],"categories_nodes":[],"categories_segments":[],"categories_sizes":[],"default_left":[0,0,0,0,0,0,0],"id":134,"left_children":[1,3,5,-1,-1,-1,-1],"loss_changes":[2.0032932E2,1.8416656E1,4.5915497E1,0E0,0E0,0E0,0E0],"parents":[2147483647,0,0,1,1,2,2],"right_children":[2,4,6,-1,-1,-1,-1],"split_conditions":[7.9788095E-1,1E-1,3.807143E0,7.4225003E-3,-7.130004E-4,-8.09021E-3,-2.8491E-2],"split_indices":[5,3,5,0,0,0,0],"split_type":[0,0,0,0,0,0,0],"sum_hessian":[1.71E2,1.17E2,5.4E1,8E1,3.7E1,3.4E1,2E1],"tree_param":{"num_deleted":"0","num_feature":"11","num_nodes":"7","size_leaf_vector":"1"}},{"base_weights":[1.4020018E-2,5.4756916E-1,-2.7136514E-2,1.9559385E-2,2.0763066E-3],"categories":[],"categories_nodes":[],"categories_segments":[],"categories_sizes":[],"default_left":[0,0,0,0,0],"id":135,"left_children":[1,3,-1,-1,-1],"loss_changes":[2.584938E2,6.761973E1,0E0,0E0,0E0],"parents":[2147483647,0,0,1,1],"right_children":[2,4,-1,-1,-1],"split_conditions":[3.1788182E0,-3.083295E0,-2.7136514E-2,1.9559385E-2,2.0763066E-3],"split_indices":[5,5,0,0,0],"split_type":[0,0,0,0,0],"sum_hessian":[1.69E2,1.45E2,2.4E1,2.3E1,1.22E2],"tree_param":{"num_deleted":"0","num_feature":"11","num_nodes":"5","size_leaf_vector":"1"}},{"base_weights":[6.5127634E-3,5.237404E-1,-2.9460825E-2,2.3223545E-2,1.178765E-3],"categories":[],"categories_nodes":[],"categories_segments":[],"categories_sizes":[],"default_left":[0,0,0,0,0],"id":136,"left_children":[1,3,-1,-1,-1],"loss_changes":[2.7712775E2,1.1006987E2,0E0,0E0,0E0],"parents":[2147483647,0,0,1,1],"right_children":[2,4,-1,-1,-1],"split_conditions":[3.807143E0,-3.2152896E0,-2.9460825E-2,2.3223545E-2,1.178765E-3],"split_indices":[5,5,0,0,0],"split_type":[0,0,0,0,0],"sum_hessian":[1.73E2,1.51E2,2.2E1,2.3E1,1.28E2],"tree_param":{"num_deleted":"0","num_feature":"11","num_nodes":"5","size_leaf_vector":"1"}},{"base_weights":[-9.452066E-2,2.13136E-1,-1.6955905E-2,5.446394E-3,-1.0009759E-2],"categories":[],"categories_nodes":[],"categories_segments":[],"categories_sizes":[],"default_left":[0,0,0,0,0],"id":137,"left_children":[1,3,-1,-1,-1],"loss_changes":[8.555023E1,6.0226967E1,0E0,0E0,0E0],"parents":[2147483647,0,0,1,1],"right_children":[2,4,-1,-1,-1],"split_conditions":[1.6795907E0,8E-1,-1.6955905E-2,5.446394E-3,-1.0009759E-2],"split_indices":[4,7,0,0,0],"split_type":[0,0,0,0,0],"sum_hessian":[1.62E2,1.39E2,2.3E1,1.12E2,2.7E1],"tree_param":{"num_deleted":"0","num_feature":"11","num_nodes":"5","size_leaf_vector":"1"}},{"base_weights":[-6.0859904E-2,1.7015978E0,-8.402779E-1,2.4567774E-2,3.7740874E-3,-2.8048267E-3,-2.9385785E-2],"categories":[],"categories_nodes":[],"categories_segments":[],"categories_sizes":[],"default_left":[0,0,0,0,0,0,0],"id":138,"left_children":[1,3,5,-1,-1,-1,-1],"loss_changes":[2.4256267E2,4.6529785E1,1.3713794E2,0E0,0E0,0E0,0E0],"parents":[2147483647,0,0,1,1,2,2],"right_children":[2,4,6,-1,-1,-1,-1],"split_conditions":[-1.5069925E0,5.95E-1,3.807143E0,2.4567774E-2,3.7740874E-3,-2.8048267E-3,-2.9385785E-2],"split_indices":[5,0,5,0,0,0,0],"split_type":[0,0,0,0,0,0,0],"sum_hessian":[1.67E2,4.9E1,1.18E2,2.8E1,2.1E1,9.8E1,2E1],"tree_param":{"num_deleted":"0","num_feature":"11","num_nodes":"7","size_leaf_vector":"1"}},{"base_weights":[-2.4051647E-1,5.0668484E-1,-2.1509993E0,1.8715099E-2,-1.311154E-3,-1.1045439E-2,-2.785588E-2],"categories":[],"categories_nodes":[],"categories_segments":[],"categories_sizes":[],"default_left":[0,0,0,0,0,0,0],"id":139,"left_children":[1,3,5,-1,-1,-1,-1],"loss_changes":[2.4406125E2,1.10037056E2,1.26011505E1,0E0,0E0,0E0,0E0],"parents":[2147483647,0,0,1,1,2,2],"right_children":[2,4,6,-1,-1,-1,-1],"split_conditions":[1.332684E0,-2.1442857E0,9.6E-1,1.8715099E-2,-1.311154E-3,-1.1045439E-2,-2.785588E-2],"split_indices":[5,5,6,0,0,0,0],"split_type":[0,0,0,0,0,0,0],"sum_hessian":[1.61E2,1.18E2,4.3E1,3.5E1,8.3E1,2.2E1,2.1E1],"tree_param":{"num_deleted":"0","num_feature":"11","num_nodes":"7","size_leaf_vector":"1"}},{"base_weights":[1.3714683E-1,-4.5036736E-1,9.0802425E-1,5.6313598E-3,-8.343785E-3,1.3054028E-2,3.6091271E-3],"categories":[],"categories_nodes":[],"categories_segments":[],"categories_sizes":[],"default_left":[0,0,0,0,0,0,0],"id":140,"left_children":[1,3,5,-1,-1,-1,-1],"loss_changes":[7.224921E1,3.7648273E1,1.0979321E1,0E0,0E0,0E0,0E0],"parents":[2147483647,0,0,1,1,2,2],"right_children":[2,4,6,-1,-1,-1,-1],"split_conditions":[5.9E-1,-3.8E-2,0E0,5.6313598E-3,-8.343785E-3,1.3054028E-2,3.6091271E-3],"split_indices":[0,0,3,0,0,0,0],"split_type":[0,0,0,0,0,0,0],"sum_hessian":[1.49E2,8.5E1,6.4E1,2.2E1,6.3E1,3.2E1,3.2E1],"tree_param":{"num_deleted":"0","num_feature":"11","num_nodes":"7","size_leaf_vector":"1"}},{"base_weights":[2.7171794E-1,-3.2408252E-1,5.282876E-1,7.3254476E-3,-1.1962239E-2,-3.7165224E-3,7.3952056E-3],"categories":[],"categories_nodes":[],"categories_segments":[],"categories_sizes":[],"default_left":[0,0,0,0,0,0,0],"id":141,"left_children":[1,3,5,-1,-1,-1,-1],"loss_changes":[2.750578E1,5.4607647E1,2.5314114E1,0E0,0E0,0E0,0E0],"parents":[2147483647,0,0,1,1,2,2],"right_children":[2,4,6,-1,-1,-1,-1],"split_conditions":[8E-1,7.2E-1,8.5E-1,7.3254476E-3,-1.1962239E-2,-3.7165224E-3,7.3952056E-3],"split_indices":[10,6,6,0,0,0,0],"split_type":[0,0,0,0,0,0,0],"sum_hessian":[1.68E2,4.9E1,1.19E2,2.2E1,2.7E1,2.1E1,9.8E1],"tree_param":{"num_deleted":"0","num_feature":"11","num_nodes":"7","size_leaf_vector":"1"}},{"base_weights":[-1.7913766E-1,5.930848E-1,-7.6103264E-1,-1.0276143E-3,8.734586E-3,4.384839E-4,-2.2969747E-2],"categories":[],"categories_nodes":[],